{"learner":{"attributes":{"scikit_learn":"{\"_estimator_type\": \"regressor\"}"},"feature_names":["op_setting_1","op_setting_2","op_setting_3","sensor_1","sensor_2","sensor_3","sensor_4","sensor_5","sensor_6","sensor_7","sensor_8","sensor_9","sensor_10","sensor_11","sensor_12","sensor_13","sensor_14","sensor_15","sensor_16","sensor_17","sensor_18","sensor_19","sensor_20","sensor_21","flight_regime"],"feature_types":["float","float","float","float","float","float","float","float","float","float","float","float","float","float","float","float","float","float","float","float","float","float","float","float","int"],"gradient_booster":{"model":{"cats":{"enc":[],"feature_segments":[],"sorted_idx":[]},"gbtree_model_param":{"num_parallel_tree":"1","num_trees":"100"},"iteration_indptr":[0,1,2,3,4,5,6,7,8,9,10,11,12,13,14,15,16,17,18,19,20,21,22,23,24,25,26,27,28,29,30,31,32,33,34,35,36,37,38,39,40,41,42,43,44,45,46,47,48,49,50,51,52,53,54,55,56,57,58,59,60,61,62,63,64,65,66,67,68,69,70,71,72,73,74,75,76,77,78,79,80,81,82,83,84,85,86,87,88,89,90,91,92,93,94,95,96,97,98,99,100],"tree_info":[0,0,0,0,0,0,0,0,0,0,0,0,0,0,0,0,0,0,0,0,0,0,0,0,0,0,0,0,0,0,0,0,0,0,0,0,0,0,0,0,0,0,0,0,0,0,0,0,0,0,0,0,0,0,0,0,0,0,0,0,0,0,0,0,0,0,0,0,0,0,0,0,0,0,0,0,0,0,0,0,0,0,0,0,0,0,0,0,0,0,0,0,0,0,0,0,0,0,0,0],"trees":[{"base_weights":[8.193658E-7,2.3916496E1,-6.927705E1,3.7645382E1,-1.1331527E1,-1.2396363E1,-8.274216E1,5.539957E1,7.4402575E0,4.812962E1,-4.4151257E1,-3.1930232E0,-6.2632637E1,-5.4363865E1,-1.0027522E2,8.1947624E1,4.813418E1,2.205298E1,-2.1457108E1,6.2231644E1,-1.0925217E1,1.0431471E2,-5.1475174E1,-5.282037E1,6.38976E0,-3.855947E1,-7.49749E1,-4.069737E1,-8.438895E1,-9.1029465E1,-1.11548386E2,1.1413881E1,7.787226E0,5.8821645E0,7.2715384E-1,3.957714E0,1.2916275E0,-1.2227547E0,-8.146922E0,8.052814E0,4.917028E0,-5.43435E0,1.189782E0,1.3611588E1,9.407815E0,-1.6549542E0,-6.6153727E0,-3.686711E0,-6.229853E0,-2.0436323E0,1.8441681E0,1.3512572E1,-4.1613245E0,-6.256697E0,-8.29293E0,-2.8567317E0,-5.5055327E0,-9.815977E0,-6.157046E0,-8.269403E0,-1.0981458E1,-9.956533E0,-1.1509088E1],"categories":[],"categories_nodes":[],"categories_segments":[],"categories_sizes":[],"default_left":[0,0,0,0,0,0,0,0,0,0,0,0,0,0,0,0,0,0,0,0,0,0,0,0,0,0,0,0,0,0,0,0,0,0,0,0,0,0,0,0,0,0,0,0,0,0,0,0,0,0,0,0,0,0,0,0,0,0,0,0,0,0,0],"id":0,"left_children":[1,3,5,7,9,11,13,15,17,19,21,23,25,27,29,31,33,35,37,39,41,43,45,47,49,51,53,55,57,59,61,-1,-1,-1,-1,-1,-1,-1,-1,-1,-1,-1,-1,-1,-1,-1,-1,-1,-1,-1,-1,-1,-1,-1,-1,-1,-1,-1,-1,-1,-1,-1,-1],"loss_changes":[1.01484584E8,2.2034094E7,1.2038224E7,1.7572532E7,2.4911058E7,1.391448E6,6.31852E6,3.976752E6,5.123443E6,3.781558E6,8.948844E6,1.2106584E6,1.3556562E5,1.989165E6,8.08568E5,5.72682E5,7.077024E6,1.28968E6,2.256087E6,8.71892E5,8.687074E5,1.131765E5,4.017626E6,6.000075E4,6.9031144E5,9.048622E4,2.51115E4,5.79957E5,4.70957E5,6.67512E5,1.38604E5,0E0,0E0,0E0,0E0,0E0,0E0,0E0,0E0,0E0,0E0,0E0,0E0,0E0,0E0,0E0,0E0,0E0,0E0,0E0,0E0,0E0,0E0,0E0,0E0,0E0,0E0,0E0,0E0,0E0,0E0,0E0,0E0],"parents":[2147483647,0,0,1,1,2,2,3,3,4,4,5,5,6,6,7,7,8,8,9,9,10,10,11,11,12,12,13,13,14,14,15,15,16,16,17,17,18,18,19,19,20,20,21,21,22,22,23,23,24,24,25,25,26,26,27,27,28,28,29,29,30,30],"right_children":[2,4,6,8,10,12,14,16,18,20,22,24,26,28,30,32,34,36,38,40,42,44,46,48,50,52,54,56,58,60,62,-1,-1,-1,-1,-1,-1,-1,-1,-1,-1,-1,-1,-1,-1,-1,-1,-1,-1,-1,-1,-1,-1,-1,-1,-1,-1,-1,-1,-1,-1,-1,-1],"split_conditions":[4.19218E-1,1.2060277E-1,-2.603787E-1,4.1851595E-1,-1.9129324E0,-4.662563E-1,4.1992003E-1,-3.3437365E-1,7.516921E-1,-2.1550903E0,-1.079994E0,-1.079994E0,2.1534051E-1,7.591903E-1,4.2140213E-1,-5.987258E-1,5.2369542E-2,-2.881268E-1,1.6278312E0,-2.388652E0,-4.7198206E-1,-1.1569573E-1,-1.8574362E0,4.19452E-1,-3.971866E-2,-3.991192E-1,-4.4699383E-1,4.1953E-1,1.8349801E0,8.7421036E-1,-1.6788502E-1,1.1413881E1,7.787226E0,5.8821645E0,7.2715384E-1,3.957714E0,1.2916275E0,-1.2227547E0,-8.146922E0,8.052814E0,4.917028E0,-5.43435E0,1.189782E0,1.3611588E1,9.407815E0,-1.6549542E0,-6.6153727E0,-3.686711E0,-6.229853E0,-2.0436323E0,1.8441681E0,1.3512572E1,-4.1613245E0,-6.256697E0,-8.29293E0,-2.8567317E0,-5.5055327E0,-9.815977E0,-6.157046E0,-8.269403E0,-1.0981458E1,-9.956533E0,-1.1509088E1],"split_indices":[15,17,13,15,13,11,15,13,4,10,8,8,16,4,15,12,17,13,11,15,8,10,13,15,17,13,11,15,14,13,13,0,0,0,0,0,0,0,0,0,0,0,0,0,0,0,0,0,0,0,0,0,0,0,0,0,0,0,0,0,0,0,0],"split_type":[0,0,0,0,0,0,0,0,0,0,0,0,0,0,0,0,0,0,0,0,0,0,0,0,0,0,0,0,0,0,0,0,0,0,0,0,0,0,0,0,0,0,0,0,0,0,0,0,0,0,0,0,0,0,0,0,0,0,0,0,0,0,0],"sum_hessian":[6.1249E4,4.5531E4,1.5718E4,3.2768E4,1.2763E4,3.009E3,1.2709E4,2.0637E4,1.2131E4,4.539E3,8.224E3,2.544E3,4.65E2,4.855E3,7.854E3,4.432E3,1.6205E4,8.057E3,4.074E3,3.664E3,8.75E2,3.86E2,7.838E3,4.11E2,2.133E3,1.59E2,3.06E2,3.338E3,1.517E3,4.32E3,3.534E3,4.95E2,3.937E3,1.2845E4,3.36E3,2.76E3,5.297E3,3.532E3,5.42E2,1.524E3,2.14E3,3.01E2,5.74E2,9.1E1,2.95E2,2.32E3,5.518E3,1.55E2,2.56E2,6.61E2,1.472E3,2E0,1.57E2,1.23E2,1.83E2,1.811E3,1.527E3,9.44E2,5.73E2,2.996E3,1.324E3,8.13E2,2.721E3],"tree_param":{"num_deleted":"0","num_feature":"25","num_nodes":"63","size_leaf_vector":"1"}},{"base_weights":[-5.7642546E-4,2.1525835E1,-6.235445E1,3.4006756E1,-9.888766E0,-1.2136663E1,-7.471485E1,5.0115513E1,6.743893E0,3.8482273E1,-4.1627514E1,-2.4933922E0,-5.151059E1,-5.0554283E1,-9.139477E1,7.5228325E1,4.4114872E1,1.2491025E1,-5.6327747E1,5.3098953E1,-1.4138208E1,9.466681E1,-4.9475445E1,-4.827905E1,7.1398935E0,-8.434601E0,-6.0024784E1,-3.8804188E1,-7.723034E1,-8.448163E1,-1.0253086E2,8.39756E0,6.32533E0,5.0593605E0,-6.5062374E-1,2.7659912E0,1.31077785E-2,-3.3368726E0,-8.310736E0,6.8280487E0,3.5348947E0,-5.2442074E0,6.6733354E-1,1.0735831E1,7.0101967E0,-4.0463676E0,-9.8211775E0,-4.2311635E0,-7.159378E0,2.7438443E0,-7.365001E-1,-4.9450493E0,1.189837E0,-5.002409E0,-7.407328E0,-3.004398E0,-5.7943807E0,-9.054745E0,-5.6626353E0,-7.806961E0,-1.0140684E1,-9.229222E0,-1.0546803E1],"categories":[],"categories_nodes":[],"categories_segments":[],"categories_sizes":[],"default_left":[0,0,0,0,0,0,0,0,0,0,0,0,0,0,0,0,0,0,0,0,0,0,0,0,0,0,0,0,0,0,0,0,0,0,0,0,0,0,0,0,0,0,0,0,0,0,0,0,0,0,0,0,0,0,0,0,0,0,0,0,0,0,0],"id":1,"left_children":[1,3,5,7,9,11,13,15,17,19,21,23,25,27,29,31,33,35,37,39,41,43,45,47,49,51,53,55,57,59,61,-1,-1,-1,-1,-1,-1,-1,-1,-1,-1,-1,-1,-1,-1,-1,-1,-1,-1,-1,-1,-1,-1,-1,-1,-1,-1,-1,-1,-1,-1,-1,-1],"loss_changes":[8.221447E7,1.785267E7,9.756068E6,1.431048E7,1.9878304E7,1.1791994E6,5.078776E6,3.083324E6,4.3881745E6,3.9464215E6,8.367037E6,1.1012462E6,2.2358238E5,1.612504E6,5.65728E5,4.08342E5,5.423156E6,2.0799734E6,6.188235E5,1.079519E6,8.8998344E5,1.25286E5,3.243038E6,5.7352562E4,6.0760775E5,8.565383E4,6.7947E4,5.98507E5,4.27029E5,4.92272E5,7.6062E4,0E0,0E0,0E0,0E0,0E0,0E0,0E0,0E0,0E0,0E0,0E0,0E0,0E0,0E0,0E0,0E0,0E0,0E0,0E0,0E0,0E0,0E0,0E0,0E0,0E0,0E0,0E0,0E0,0E0,0E0,0E0,0E0],"parents":[2147483647,0,0,1,1,2,2,3,3,4,4,5,5,6,6,7,7,8,8,9,9,10,10,11,11,12,12,13,13,14,14,15,15,16,16,17,17,18,18,19,19,20,20,21,21,22,22,23,23,24,24,25,25,26,26,27,27,28,28,29,29,30,30],"right_children":[2,4,6,8,10,12,14,16,18,20,22,24,26,28,30,32,34,36,38,40,42,44,46,48,50,52,54,56,58,60,62,-1,-1,-1,-1,-1,-1,-1,-1,-1,-1,-1,-1,-1,-1,-1,-1,-1,-1,-1,-1,-1,-1,-1,-1,-1,-1,-1,-1,-1,-1,-1,-1],"split_conditions":[4.19218E-1,1.18337214E-1,-2.5729558E-1,4.1851595E-1,-1.9005998E0,-4.7210327E-1,4.1999805E-1,-3.43623E-1,1.4538374E0,-2.1550903E0,-1.079994E0,-1.079994E0,-3.312905E-1,7.607971E-1,4.2179215E-1,-4.0358808E-2,5E0,4.3332386E-1,1.6016829E0,-1.9591792E0,-4.7198206E-1,7.048207E-2,-1.6171879E-1,4.1992003E-1,-6.587412E-1,-6.5934527E-1,-4.4699383E-1,4.1968602E-1,1.8349801E0,8.8962597E-1,-1.6788502E-1,8.39756E0,6.32533E0,5.0593605E0,-6.5062374E-1,2.7659912E0,1.31077785E-2,-3.3368726E0,-8.310736E0,6.8280487E0,3.5348947E0,-5.2442074E0,6.6733354E-1,1.0735831E1,7.0101967E0,-4.0463676E0,-9.8211775E0,-4.2311635E0,-7.159378E0,2.7438443E0,-7.365001E-1,-4.9450493E0,1.189837E0,-5.002409E0,-7.407328E0,-3.004398E0,-5.7943807E0,-9.054745E0,-5.6626353E0,-7.806961E0,-1.0140684E1,-9.229222E0,-1.0546803E1],"split_indices":[15,17,13,15,13,11,15,13,13,10,8,8,13,4,15,10,24,13,11,13,8,16,13,15,6,8,11,15,14,13,13,0,0,0,0,0,0,0,0,0,0,0,0,0,0,0,0,0,0,0,0,0,0,0,0,0,0,0,0,0,0,0,0],"split_type":[0,0,0,0,0,0,0,0,0,0,0,0,0,0,0,0,0,0,0,0,0,0,0,0,0,0,0,0,0,0,0,0,0,0,0,0,0,0,0,0,0,0,0,0,0,0,0,0,0,0,0,0,0,0,0,0,0,0,0,0,0,0,0],"sum_hessian":[6.1249E4,4.5531E4,1.5718E4,3.2585E4,1.2946E4,3.105E3,1.2613E4,2.0482E4,1.2103E4,5.129E3,7.817E3,2.495E3,6.1E2,5.153E3,7.46E3,3.948E3,1.6534E4,1.1093E4,1.01E3,4.014E3,1.115E3,4.25E2,7.392E3,4.33E2,2.062E3,1.01E2,5.09E2,3.579E3,1.574E3,4.608E3,2.852E3,2.278E3,1.67E3,1.4658E4,1.876E3,4.98E3,6.113E3,5.45E2,4.65E2,2.162E3,1.852E3,3.92E2,7.23E2,2.78E2,1.47E2,6.24E3,1.152E3,3.47E2,8.6E1,8.59E2,1.203E3,3.3E1,6.8E1,3E2,2.09E2,2.457E3,1.122E3,9.54E2,6.2E2,3.346E3,1.262E3,6.43E2,2.209E3],"tree_param":{"num_deleted":"0","num_feature":"25","num_nodes":"63","size_leaf_vector":"1"}},{"base_weights":[-1.6095268E-3,2.0365597E1,-5.3670708E1,3.3582394E1,-6.564864E0,-3.2996502E1,-7.8186874E1,5.1134632E1,1.3141248E1,4.1605434E1,-2.6294964E1,6.3916606E-1,-4.471947E1,-3.583274E1,-8.417123E1,5.3083103E1,-1.3178256E1,2.0105387E1,-3.2999115E1,5.5941788E1,2.376953E0,8.033669E1,-3.5786495E1,-3.735813E1,8.607582E0,-3.4641937E1,-6.993446E1,1.626191E1,-4.8521896E1,-7.8551E1,-9.3180145E1,5.8740797E0,3.4165616E0,2.0801747E-1,-7.2188487E0,3.8713558E0,1.1950285E0,-1.5922817E0,-7.025579E0,6.184652E0,2.7777293E0,-3.7961347E0,2.3873036E0,9.514721E0,6.1491714E0,-2.652321E0,-8.123599E0,-8.199192E-1,-4.093061E0,-1.0974125E0,1.8664583E0,-1.785751E0,-4.6910563E0,-8.561355E0,-5.257919E0,4.7516265E0,-3.1461532E0,-5.0313574E-1,-5.38477E0,-7.303186E0,-9.271758E0,-7.8157325E0,-9.461173E0],"categories":[],"categories_nodes":[],"categories_segments":[],"categories_sizes":[],"default_left":[0,0,0,0,0,0,0,0,0,0,0,0,0,0,0,0,0,0,0,0,0,0,0,0,0,0,0,0,0,0,0,0,0,0,0,0,0,0,0,0,0,0,0,0,0,0,0,0,0,0,0,0,0,0,0,0,0,0,0,0,0,0,0],"id":2,"left_children":[1,3,5,7,9,11,13,15,17,19,21,23,25,27,29,31,33,35,37,39,41,43,45,47,49,51,53,55,57,59,61,-1,-1,-1,-1,-1,-1,-1,-1,-1,-1,-1,-1,-1,-1,-1,-1,-1,-1,-1,-1,-1,-1,-1,-1,-1,-1,-1,-1,-1,-1,-1,-1],"loss_changes":[6.695283E7,1.5804068E7,8.537876E6,1.0685468E7,1.389411E7,3.605205E6,1.950672E6,2.008696E6,4.4224565E6,2.388915E6,1.049934E7,7.160895E5,1.720408E6,6.327406E5,3.34596E5,1.66262E6,4.251406E5,1.814031E6,1.1472334E6,5.15653E5,9.876837E5,2.3083E5,4.00756E6,4.2373875E4,3.852093E5,9.97059E5,5.22041E5,2.819092E5,1.778465E5,3.1888E5,4.8288E4,0E0,0E0,0E0,0E0,0E0,0E0,0E0,0E0,0E0,0E0,0E0,0E0,0E0,0E0,0E0,0E0,0E0,0E0,0E0,0E0,0E0,0E0,0E0,0E0,0E0,0E0,0E0,0E0,0E0,0E0,0E0,0E0],"parents":[2147483647,0,0,1,1,2,2,3,3,4,4,5,5,6,6,7,7,8,8,9,9,10,10,11,11,12,12,13,13,14,14,15,15,16,16,17,17,18,18,19,19,20,20,21,21,22,22,23,23,24,24,25,25,26,26,27,27,28,28,29,29,30,30],"right_children":[2,4,6,8,10,12,14,16,18,20,22,24,26,28,30,32,34,36,38,40,42,44,46,48,50,52,54,56,58,60,62,-1,-1,-1,-1,-1,-1,-1,-1,-1,-1,-1,-1,-1,-1,-1,-1,-1,-1,-1,-1,-1,-1,-1,-1,-1,-1,-1,-1,-1,-1,-1,-1],"split_conditions":[4.1913998E-1,9.821374E-2,4.2015406E-1,4.1835994E-1,-1.9190986E0,-2.6654494E-1,-2.5112933E-1,1.608361E0,1.41684E0,-2.387794E0,-1.079994E0,-1.079994E0,7.6240385E-1,-6.5698135E-1,4.2194816E-1,4.450673E-2,1.0260109E0,-6.285719E-1,1.6117742E0,-1.3105656E0,-4.7198206E-1,4.1789192E-1,-5.737644E-1,-1.14526115E-1,-4.3050364E-2,4.19452E-1,1.8339691E0,4.2062208E-1,-3.312905E-1,7.183253E-1,-5.7074744E-1,5.8740797E0,3.4165616E0,2.0801747E-1,-7.2188487E0,3.8713558E0,1.1950285E0,-1.5922817E0,-7.025579E0,6.184652E0,2.7777293E0,-3.7961347E0,2.3873036E0,9.514721E0,6.1491714E0,-2.652321E0,-8.123599E0,-8.199192E-1,-4.093061E0,-1.0974125E0,1.8664583E0,-1.785751E0,-4.6910563E0,-8.561355E0,-5.257919E0,4.7516265E0,-3.1461532E0,-5.0313574E-1,-5.38477E0,-7.303186E0,-9.271758E0,-7.8157325E0,-9.461173E0],"split_indices":[15,17,15,15,13,13,13,11,13,15,8,8,4,6,15,17,16,6,11,6,8,15,6,10,17,15,14,15,13,8,6,0,0,0,0,0,0,0,0,0,0,0,0,0,0,0,0,0,0,0,0,0,0,0,0,0,0,0,0,0,0,0,0],"split_type":[0,0,0,0,0,0,0,0,0,0,0,0,0,0,0,0,0,0,0,0,0,0,0,0,0,0,0,0,0,0,0,0,0,0,0,0,0,0,0,0,0,0,0,0,0,0,0,0,0,0,0,0,0,0,0,0,0,0,0,0,0,0,0],"sum_hessian":[6.1249E4,4.44E4,1.6849E4,2.9783E4,1.4617E4,9.142E3,7.707E3,1.6023E4,1.376E4,4.247E3,1.037E4,2.363E3,6.779E3,9.55E2,6.752E3,1.5552E4,4.71E2,1.1956E4,1.804E3,3.11E3,1.137E3,8.47E2,9.523E3,4.09E2,1.954E3,4.845E3,1.934E3,1.87E2,7.68E2,4.164E3,2.588E3,1.197E4,3.582E3,3.75E2,9.6E1,3.642E3,8.314E3,1.238E3,5.66E2,2.57E3,5.4E2,3.95E2,7.42E2,4.72E2,3.75E2,7.912E3,1.611E3,4.5E1,3.64E2,6.63E2,1.291E3,2.047E3,2.798E3,1.014E3,9.2E2,1.13E2,7.4E1,8.4E1,6.84E2,3.001E3,1.163E3,2.3E2,2.358E3],"tree_param":{"num_deleted":"0","num_feature":"25","num_nodes":"63","size_leaf_vector":"1"}},{"base_weights":[-2.2874998E-3,1.8329288E1,-4.830735E1,2.196938E1,-6.222106E1,-3.19254E1,-7.337366E1,3.0435156E1,2.9707747E0,-3.328362E1,-9.017564E1,2.6360438E0,-4.2066097E1,-4.4586777E1,-7.8524666E1,4.8154724E1,1.3540361E1,1.712446E1,-6.024357E1,-2.0932299E1,-6.540201E1,-7.032065E1,-1.018699E2,-3.451329E1,9.277297E0,-3.3048443E1,-6.218137E1,3.4823967E1,-4.8919952E1,-6.643021E1,-8.091661E1,7.299119E0,4.409165E0,1.7510674E0,-5.3033433E0,2.7281876E0,-6.6202035E0,-3.2357194E0,-8.135455E0,3.4206912E-1,-3.5325508E0,-5.2567844E0,-8.135032E0,-5.960746E0,-8.562575E0,-9.665511E0,-1.0960406E1,-1.8447666E0,-4.1769605E0,-1.1902055E0,2.0335908E0,-4.758143E0,-1.6711451E0,-5.5428896E0,-8.704181E0,7.348001E0,-1.1410003E0,-1.7732702E0,-5.3908086E0,-5.792278E0,-8.122291E0,-6.200407E0,-8.252888E0],"categories":[],"categories_nodes":[],"categories_segments":[],"categories_sizes":[],"default_left":[0,0,0,0,0,0,0,0,0,0,0,0,0,0,0,0,0,0,0,0,0,0,0,0,0,0,0,0,0,0,0,0,0,0,0,0,0,0,0,0,0,0,0,0,0,0,0,0,0,0,0,0,0,0,0,0,0,0,0,0,0,0,0],"id":3,"left_children":[1,3,5,7,9,11,13,15,17,19,21,23,25,27,29,31,33,35,37,39,41,43,45,47,49,51,53,55,57,59,61,-1,-1,-1,-1,-1,-1,-1,-1,-1,-1,-1,-1,-1,-1,-1,-1,-1,-1,-1,-1,-1,-1,-1,-1,-1,-1,-1,-1,-1,-1,-1,-1],"loss_changes":[5.423825E7,1.302021E7,6.916856E6,6.832628E6,1.5501505E6,3.572174E6,9.83904E5,8.79689E6,1.1718232E7,3.735168E5,2.19454E5,5.7097925E5,1.427319E6,3.502775E5,1.57988E5,1.444168E6,3.977604E6,9.058938E6,1.407913E6,2.3987497E5,4.9350625E4,5.4743875E4,1.40895E4,4.0148062E4,4.6000447E5,1.291511E6,4.04441E5,9.556118E4,1.4854325E5,1.133405E5,1.385E5,0E0,0E0,0E0,0E0,0E0,0E0,0E0,0E0,0E0,0E0,0E0,0E0,0E0,0E0,0E0,0E0,0E0,0E0,0E0,0E0,0E0,0E0,0E0,0E0,0E0,0E0,0E0,0E0,0E0,0E0,0E0,0E0],"parents":[2147483647,0,0,1,1,2,2,3,3,4,4,5,5,6,6,7,7,8,8,9,9,10,10,11,11,12,12,13,13,14,14,15,15,16,16,17,17,18,18,19,19,20,20,21,21,22,22,23,23,24,24,25,25,26,26,27,27,28,28,29,29,30,30],"right_children":[2,4,6,8,10,12,14,16,18,20,22,24,26,28,30,32,34,36,38,40,42,44,46,48,50,52,54,56,58,60,62,-1,-1,-1,-1,-1,-1,-1,-1,-1,-1,-1,-1,-1,-1,-1,-1,-1,-1,-1,-1,-1,-1,-1,-1,-1,-1,-1,-1,-1,-1,-1,-1],"split_conditions":[4.1913998E-1,2.1769283E0,4.2038807E-1,9.381589E-2,-1.8235219E0,-2.7579433E-1,-2.2954747E-1,4.1828194E-1,-6.015034E-1,-1.4959519E0,2.235433E0,-1.079994E0,8.4954536E-1,-6.8472034E-1,3.347524E-1,4.1679984E-1,9.5364E-1,-7.24873E-1,-1.8330064E-1,-1.2746139E0,-2.385532E0,-1.2195549E0,-1.75261E0,-1.1431971E-1,-4.3050364E-2,3.486066E-1,1.5339986E0,4.2062208E-1,-3.158749E-1,-6.677207E-2,-5.101236E-1,7.299119E0,4.409165E0,1.7510674E0,-5.3033433E0,2.7281876E0,-6.6202035E0,-3.2357194E0,-8.135455E0,3.4206912E-1,-3.5325508E0,-5.2567844E0,-8.135032E0,-5.960746E0,-8.562575E0,-9.665511E0,-1.0960406E1,-1.8447666E0,-4.1769605E0,-1.1902055E0,2.0335908E0,-4.758143E0,-1.6711451E0,-5.5428896E0,-8.704181E0,7.348001E0,-1.1410003E0,-1.7732702E0,-5.3908086E0,-5.792278E0,-8.122291E0,-6.200407E0,-8.252888E0],"split_indices":[15,17,15,17,13,13,13,15,6,11,17,8,13,6,16,15,16,9,13,6,15,6,13,10,17,14,13,15,13,17,11,0,0,0,0,0,0,0,0,0,0,0,0,0,0,0,0,0,0,0,0,0,0,0,0,0,0,0,0,0,0,0,0],"split_type":[0,0,0,0,0,0,0,0,0,0,0,0,0,0,0,0,0,0,0,0,0,0,0,0,0,0,0,0,0,0,0,0,0,0,0,0,0,0,0,0,0,0,0,0,0,0,0,0,0,0,0,0,0,0,0,0,0,0,0,0,0,0,0],"sum_hessian":[6.1249E4,4.44E4,1.6849E4,4.2481E4,1.919E3,1.0191E4,6.658E3,2.9386E4,1.3095E4,9.44E2,9.75E2,2.312E3,7.879E3,1.012E3,5.646E3,1.4342E4,1.5044E4,1.07E4,2.395E3,6.83E2,2.61E2,3.64E2,6.11E2,3.5E2,1.962E3,5.442E3,2.437E3,5.2E1,9.6E2,9.37E2,4.709E3,2.014E3,1.2328E4,1.4198E4,8.46E2,9.538E3,1.162E3,1.033E3,1.362E3,2.54E2,4.29E2,1.47E2,1.14E2,2.17E2,1.47E2,3.73E2,2.38E2,1.1E2,2.4E2,6.73E2,1.289E3,2.879E3,2.563E3,1.919E3,5.18E2,2.8E1,2.4E1,1.33E2,8.27E2,5.98E2,3.39E2,3.73E2,4.336E3],"tree_param":{"num_deleted":"0","num_feature":"25","num_nodes":"63","size_leaf_vector":"1"}},{"base_weights":[-3.920445E-3,1.5084187E1,-4.7925404E1,1.7716845E1,-6.769921E1,-1.1843261E1,-5.7124763E1,2.3606937E1,-6.2522073E0,-4.040951E1,-8.4494644E1,3.441424E0,-2.9387888E1,-3.5179005E1,-6.545586E1,3.665109E1,4.120756E0,4.6908746E0,-2.928428E1,-2.6011217E1,-6.041581E1,-6.823347E1,-9.171662E1,1.0599423E1,-4.9193512E1,-3.908803E1,1.129588E1,-2.528121E1,-5.5419304E1,-5.79141E1,-7.274234E1,4.0886908E0,-7.432665E-1,1.5297354E0,-5.573718E0,6.817026E-1,-5.2384105E0,-2.1053813E0,-6.777096E0,1.1802814E0,-3.3533406E0,-2.867863E0,-6.3991485E0,-5.940303E0,-7.804857E0,-8.436139E0,-9.673405E0,1.8806018E0,-1.9663528E0,-3.8128705E0,-6.198215E0,-2.30054E0,-4.925267E0,3.8304856E0,-1.9446812E0,-2.1448336E0,-6.3423243E0,-6.445746E0,-3.917128E0,-5.0750213E0,-7.140245E0,-6.074844E0,-7.457547E0],"categories":[],"categories_nodes":[],"categories_segments":[],"categories_sizes":[],"default_left":[0,0,0,0,0,0,0,0,0,0,0,0,0,0,0,0,0,0,0,0,0,0,0,0,0,0,0,0,0,0,0,0,0,0,0,0,0,0,0,0,0,0,0,0,0,0,0,0,0,0,0,0,0,0,0,0,0,0,0,0,0,0,0],"id":4,"left_children":[1,3,5,7,9,11,13,15,17,19,21,23,25,27,29,31,33,35,37,39,41,43,45,47,49,51,53,55,57,59,61,-1,-1,-1,-1,-1,-1,-1,-1,-1,-1,-1,-1,-1,-1,-1,-1,-1,-1,-1,-1,-1,-1,-1,-1,-1,-1,-1,-1,-1,-1,-1,-1],"loss_changes":[4.42872E7,1.0153733E7,4.86778E6,6.374281E6,6.547655E5,7.994983E5,2.134452E6,9.21212E6,2.2450742E6,1.5657156E5,9.80265E4,6.0107825E5,5.4819975E5,6.43275E5,4.6124E5,4.054226E6,9.724216E6,7.331901E5,9.07367E5,9.1702375E4,2.4152188E4,1.9371625E4,1.4425E4,3.4906128E5,2.4663938E4,1.8212138E5,2.2327295E5,3.1485625E5,1.5255125E5,3.99029E5,9.0102E4,0E0,0E0,0E0,0E0,0E0,0E0,0E0,0E0,0E0,0E0,0E0,0E0,0E0,0E0,0E0,0E0,0E0,0E0,0E0,0E0,0E0,0E0,0E0,0E0,0E0,0E0,0E0,0E0,0E0,0E0,0E0,0E0],"parents":[2147483647,0,0,1,1,2,2,3,3,4,4,5,5,6,6,7,7,8,8,9,9,10,10,11,11,12,12,13,13,14,14,15,15,16,16,17,17,18,18,19,19,20,20,21,21,22,22,23,23,24,24,25,25,26,26,27,27,28,28,29,29,30,30],"right_children":[2,4,6,8,10,12,14,16,18,20,22,24,26,28,30,32,34,36,38,40,42,44,46,48,50,52,54,56,58,60,62,-1,-1,-1,-1,-1,-1,-1,-1,-1,-1,-1,-1,-1,-1,-1,-1,-1,-1,-1,-1,-1,-1,-1,-1,-1,-1,-1,-1,-1,-1,-1,-1],"split_conditions":[4.19296E-1,2.1939867E0,-2.5112933E-1,4.1874996E-1,-1.8235219E0,-5.204047E-1,4.19764E-1,7.7823736E-2,7.516921E-1,2.2191744E0,2.235433E0,4.210121E-1,-6.5934527E-1,7.5758356E-1,4.210121E-1,1.3798424E0,-2.048825E-1,1.2833232E-1,1.4908348E0,-4.7014517E-1,-1.2788041E0,-1.2195549E0,-1.191313E0,-6.144929E-1,4.2210418E-1,4.1968602E-1,4.1984203E-1,8.0948836E-1,1.8349801E0,9.6302605E-1,-1.9563313E-1,4.0886908E0,-7.432665E-1,1.5297354E0,-5.573718E0,6.817026E-1,-5.2384105E0,-2.1053813E0,-6.777096E0,1.1802814E0,-3.3533406E0,-2.867863E0,-6.3991485E0,-5.940303E0,-7.804857E0,-8.436139E0,-9.673405E0,1.8806018E0,-1.9663528E0,-3.8128705E0,-6.198215E0,-2.30054E0,-4.925267E0,3.8304856E0,-1.9446812E0,-2.1448336E0,-6.3423243E0,-6.445746E0,-3.917128E0,-5.0750213E0,-7.140245E0,-6.074844E0,-7.457547E0],"split_indices":[15,17,13,15,13,12,15,17,4,17,17,15,8,4,15,13,13,17,13,8,6,6,6,6,15,15,15,11,14,6,13,0,0,0,0,0,0,0,0,0,0,0,0,0,0,0,0,0,0,0,0,0,0,0,0,0,0,0,0,0,0,0,0],"split_type":[0,0,0,0,0,0,0,0,0,0,0,0,0,0,0,0,0,0,0,0,0,0,0,0,0,0,0,0,0,0,0,0,0,0,0,0,0,0,0,0,0,0,0,0,0,0,0,0,0,0,0,0,0,0,0,0,0,0,0,0,0,0,0],"sum_hessian":[6.1249E4,4.6583E4,1.4666E4,4.5148E4,1.435E3,2.98E3,1.1686E4,3.6242E4,8.906E3,5.48E2,8.87E2,1.593E3,1.387E3,3.217E3,8.469E3,2.1709E4,1.4533E4,6.038E3,2.868E3,3.2E2,2.28E2,2.76E2,6.11E2,1.403E3,1.9E2,1.12E3,2.67E2,2.162E3,1.055E3,4.166E3,4.303E3,1.9806E4,1.903E3,1.2247E4,2.286E3,5.822E3,2.16E2,2.364E3,5.04E2,5.3E1,2.67E2,2.4E1,2.04E2,1.49E2,1.27E2,2.55E2,3.56E2,1.104E3,2.99E2,1.04E2,8.6E1,4.35E2,6.85E2,1.42E2,1.25E2,1.966E3,1.96E2,6.76E2,3.79E2,2.724E3,1.442E3,5.75E2,3.728E3],"tree_param":{"num_deleted":"0","num_feature":"25","num_nodes":"63","size_leaf_vector":"1"}},{"base_weights":[-5.4441243E-3,1.3574537E1,-4.3136955E1,1.6551449E1,-4.7480408E1,-1.0664112E1,-5.1416103E1,2.2113926E1,-5.6284947E0,-2.6396608E1,-7.398901E1,3.0909488E0,-2.6452946E1,-3.440813E1,-6.022829E1,3.298614E1,5.013236E0,3.7385666E0,-2.7534355E1,-1.2639014E1,-4.4513363E1,-6.015002E1,-8.386895E1,9.539422E0,-4.4326576E1,-3.5185673E1,1.0173326E1,-2.6275696E1,-5.242914E1,-5.406359E1,-6.605641E1,3.5746167E0,-2.7431839E0,1.5776232E0,-5.741992E0,6.596701E-1,-3.0964048E0,-4.6840677E0,-9.26334E-1,-3.4956357E-1,-4.872692E0,-3.6168861E0,-6.2298045E0,-5.514098E0,-8.031408E0,-7.423224E0,-8.717458E0,1.5619638E0,-2.4912317E0,-3.507655E0,-5.699653E0,-1.7593231E0,-4.2919116E0,2.7376192E0,-3.208207E0,-2.0438108E0,-4.829332E0,-6.122798E0,-3.721969E0,-4.7810154E0,-6.548027E0,-5.4666677E0,-6.7948084E0],"categories":[],"categories_nodes":[],"categories_segments":[],"categories_sizes":[],"default_left":[0,0,0,0,0,0,0,0,0,0,0,0,0,0,0,0,0,0,0,0,0,0,0,0,0,0,0,0,0,0,0,0,0,0,0,0,0,0,0,0,0,0,0,0,0,0,0,0,0,0,0,0,0,0,0,0,0,0,0,0,0,0,0],"id":5,"left_children":[1,3,5,7,9,11,13,15,17,19,21,23,25,27,29,31,33,35,37,39,41,43,45,47,49,51,53,55,57,59,61,-1,-1,-1,-1,-1,-1,-1,-1,-1,-1,-1,-1,-1,-1,-1,-1,-1,-1,-1,-1,-1,-1,-1,-1,-1,-1,-1,-1,-1,-1,-1,-1],"loss_changes":[3.5876252E7,8.467668E6,3.942638E6,5.480336E6,1.208629E6,6.474845E5,1.749544E6,6.602498E6,1.8277616E6,3.0052288E5,1.26078E5,4.8782122E5,4.44306E5,5.83522E5,2.72972E5,3.621236E6,9.27675E6,6.19117E5,9.406926E5,2.2684588E5,7.506531E4,3.62755E4,1.1272E4,2.9449062E5,2.0385469E4,1.5175712E5,1.9569122E5,3.5272662E5,1.6366475E5,2.64309E5,8.1434E4,0E0,0E0,0E0,0E0,0E0,0E0,0E0,0E0,0E0,0E0,0E0,0E0,0E0,0E0,0E0,0E0,0E0,0E0,0E0,0E0,0E0,0E0,0E0,0E0,0E0,0E0,0E0,0E0,0E0,0E0,0E0,0E0],"parents":[2147483647,0,0,1,1,2,2,3,3,4,4,5,5,6,6,7,7,8,8,9,9,10,10,11,11,12,12,13,13,14,14,15,15,16,16,17,17,18,18,19,19,20,20,21,21,22,22,23,23,24,24,25,25,26,26,27,27,28,28,29,29,30,30],"right_children":[2,4,6,8,10,12,14,16,18,20,22,24,26,28,30,32,34,36,38,40,42,44,46,48,50,52,54,56,58,60,62,-1,-1,-1,-1,-1,-1,-1,-1,-1,-1,-1,-1,-1,-1,-1,-1,-1,-1,-1,-1,-1,-1,-1,-1,-1,-1,-1,-1,-1,-1,-1,-1],"split_conditions":[4.19296E-1,2.170265E0,-2.5112933E-1,4.1874996E-1,2.2191744E0,-5.204047E-1,4.1992003E-1,7.7823736E-2,7.5517344E-1,-1.8481867E0,-1.7957737E0,4.210121E-1,-6.5934527E-1,7.591903E-1,4.2116812E-1,1.608361E0,-7.286044E-1,9.608145E-2,1.836641E0,-2.387092E0,-1.2195549E0,-1.958003E0,-1.207571E0,-6.015034E-1,4.223382E-1,4.1960803E-1,1.8662561E-1,7.183253E-1,1.8342401E0,7.183253E-1,3.5156113E-1,3.5746167E0,-2.7431839E0,1.5776232E0,-5.741992E0,6.596701E-1,-3.0964048E0,-4.6840677E0,-9.26334E-1,-3.4956357E-1,-4.872692E0,-3.6168861E0,-6.2298045E0,-5.514098E0,-8.031408E0,-7.423224E0,-8.717458E0,1.5619638E0,-2.4912317E0,-3.507655E0,-5.699653E0,-1.7593231E0,-4.2919116E0,2.7376192E0,-3.208207E0,-2.0438108E0,-4.829332E0,-6.122798E0,-3.721969E0,-4.7810154E0,-6.548027E0,-5.4666677E0,-6.7948084E0],"split_indices":[15,17,13,15,17,12,15,17,4,13,13,15,8,4,15,11,14,17,14,15,6,16,6,6,15,15,16,8,9,8,16,0,0,0,0,0,0,0,0,0,0,0,0,0,0,0,0,0,0,0,0,0,0,0,0,0,0,0,0,0,0,0,0],"split_type":[0,0,0,0,0,0,0,0,0,0,0,0,0,0,0,0,0,0,0,0,0,0,0,0,0,0,0,0,0,0,0,0,0,0,0,0,0,0,0,0,0,0,0,0,0,0,0,0,0,0,0,0,0,0,0,0,0,0,0,0,0,0,0],"sum_hessian":[6.1249E4,4.6583E4,1.4666E4,4.4418E4,2.165E3,2.98E3,1.1686E4,3.5512E4,8.906E3,1.207E3,9.58E2,1.593E3,1.387E3,3.99E3,7.696E3,2.1709E4,1.3803E4,6.239E3,2.667E3,6.87E2,5.2E2,4.02E2,5.56E2,1.403E3,1.9E2,1.12E3,2.67E2,2.751E3,1.239E3,3.745E3,3.951E3,2.0761E4,9.48E2,1.1774E4,2.029E3,5.765E3,4.74E2,1.296E3,1.371E3,5.49E2,1.38E2,3.56E2,1.64E2,3.25E2,7.7E1,1.48E2,4.08E2,1.193E3,2.1E2,1.12E2,7.8E1,3.43E2,7.77E2,1.9E2,7.7E1,2.176E3,5.75E2,7.83E2,4.56E2,2.423E3,1.322E3,5.67E2,3.384E3],"tree_param":{"num_deleted":"0","num_feature":"25","num_nodes":"63","size_leaf_vector":"1"}},{"base_weights":[-6.7458404E-3,1.4116658E1,-3.3735573E1,2.2452587E1,-7.6049957E0,-1.739385E1,-4.8489456E1,4.526848E1,1.5657752E1,2.4144152E1,-3.6241558E1,-9.145817E0,-4.0299816E1,-2.3422949E1,-5.4658474E1,8.039329E1,4.20314E1,2.1847996E1,-1.0107284E1,3.615228E1,-2.018984E1,7.154285E1,-4.045091E1,1.5996387E1,-1.4801159E1,-3.3604095E1,-6.3353855E1,-7.8615127E0,-3.975727E1,-4.853635E1,-5.9444256E1,-2.2170846E0,8.322667E0,1.6666735E0,4.6043067E0,4.753314E0,8.609195E-1,-7.521224E-2,-4.5126452E0,4.499139E0,1.2442453E0,-5.105865E0,-3.067387E-1,1.0319363E1,5.792917E0,-3.3981502E0,-7.7845583E0,1.9193393E-1,3.415922E0,-1.1864263E0,-5.022997E0,-2.6615684E0,-6.2230077E0,-5.567633E0,-7.143087E0,1.2243065E0,-3.071248E0,-4.78952E0,-2.5699244E0,-4.233893E0,-5.7928867E0,-5.6983433E0,-6.61755E0],"categories":[],"categories_nodes":[],"categories_segments":[],"categories_sizes":[],"default_left":[0,0,0,0,0,0,0,0,0,0,0,0,0,0,0,0,0,0,0,0,0,0,0,0,0,0,0,0,0,0,0,0,0,0,0,0,0,0,0,0,0,0,0,0,0,0,0,0,0,0,0,0,0,0,0,0,0,0,0,0,0,0,0],"id":6,"left_children":[1,3,5,7,9,11,13,15,17,19,21,23,25,27,29,31,33,35,37,39,41,43,45,47,49,51,53,55,57,59,61,-1,-1,-1,-1,-1,-1,-1,-1,-1,-1,-1,-1,-1,-1,-1,-1,-1,-1,-1,-1,-1,-1,-1,-1,-1,-1,-1,-1,-1,-1,-1,-1],"loss_changes":[2.9177882E7,7.817513E6,4.357834E6,4.836234E6,1.0887474E7,1.6204548E6,1.467758E6,8.10612E5,3.8347245E6,3.0240488E6,2.859404E6,8.9729925E5,3.4843025E5,4.770478E5,2.20464E5,1.77079E5,6.66438E5,6.591276E6,1.5259731E6,9.36025E5,6.3991706E5,9.61415E4,1.463397E6,2.9626644E5,5.353694E5,3.5083212E5,2.764875E4,4.4278697E5,1.03562375E5,1.925485E5,6.7025E4,0E0,0E0,0E0,0E0,0E0,0E0,0E0,0E0,0E0,0E0,0E0,0E0,0E0,0E0,0E0,0E0,0E0,0E0,0E0,0E0,0E0,0E0,0E0,0E0,0E0,0E0,0E0,0E0,0E0,0E0,0E0,0E0],"parents":[2147483647,0,0,1,1,2,2,3,3,4,4,5,5,6,6,7,7,8,8,9,9,10,10,11,11,12,12,13,13,14,14,15,15,16,16,17,17,18,18,19,19,20,20,21,21,22,22,23,23,24,24,25,25,26,26,27,27,28,28,29,29,30,30],"right_children":[2,4,6,8,10,12,14,16,18,20,22,24,26,28,30,32,34,36,38,40,42,44,46,48,50,52,54,56,58,60,62,-1,-1,-1,-1,-1,-1,-1,-1,-1,-1,-1,-1,-1,-1,-1,-1,-1,-1,-1,-1,-1,-1,-1,-1,-1,-1,-1,-1,-1,-1,-1,-1],"split_conditions":[4.19062E-1,1.3113095E-1,4.1984203E-1,-6.671216E-1,-1.8882674E0,7.541023E-1,-2.2954747E-1,-5.987258E-1,2.0251948E-2,-2.1550214E0,-1.079994E0,-3.127918E-1,1.8034923E0,-5.204047E-1,4.209341E-1,-1.0836678E0,-1.0818309E0,4.180479E-1,-5.771165E-1,-1.3105656E0,-4.7198206E-1,-1.1569573E-1,-7.2614914E-1,-6.5934527E-1,8.024245E-1,-3.0523168E-2,1.5555804E0,-6.2471694E-1,-6.6118217E-1,7.183253E-1,4.2335227E-1,-2.2170846E0,8.322667E0,1.6666735E0,4.6043067E0,4.753314E0,8.609195E-1,-7.521224E-2,-4.5126452E0,4.499139E0,1.2442453E0,-5.105865E0,-3.067387E-1,1.0319363E1,5.792917E0,-3.3981502E0,-7.7845583E0,1.9193393E-1,3.415922E0,-1.1864263E0,-5.022997E0,-2.6615684E0,-6.2230077E0,-5.567633E0,-7.143087E0,1.2243065E0,-3.071248E0,-4.78952E0,-2.5699244E0,-4.233893E0,-5.7928867E0,-5.6983433E0,-6.61755E0],"split_indices":[15,17,15,6,13,4,13,12,17,10,8,13,6,12,15,8,8,15,6,6,8,10,14,8,11,17,13,6,8,8,15,0,0,0,0,0,0,0,0,0,0,0,0,0,0,0,0,0,0,0,0,0,0,0,0,0,0,0,0,0,0,0,0],"split_type":[0,0,0,0,0,0,0,0,0,0,0,0,0,0,0,0,0,0,0,0,0,0,0,0,0,0,0,0,0,0,0,0,0,0,0,0,0,0,0,0,0,0,0,0,0,0,0,0,0,0,0,0,0,0,0,0,0,0,0,0,0,0,0],"sum_hessian":[6.1249E4,4.3172E4,1.8077E4,3.1199E4,1.1973E4,8.578E3,9.499E3,7.158E3,2.4041E4,5.678E3,6.295E3,6.308E3,2.27E3,1.877E3,7.622E3,6.02E2,6.556E3,1.9384E4,4.657E3,4.468E3,1.21E3,2.36E2,6.059E3,1.158E3,5.15E3,1.761E3,5.09E2,9.62E2,9.15E2,3.349E3,4.273E3,1.6E1,5.86E2,8.96E2,5.66E3,6.592E3,1.2792E4,3.676E3,9.81E2,3.254E3,1.214E3,4.31E2,7.79E2,6.9E1,1.67E2,5.167E3,8.92E2,6.53E2,5.05E2,4.757E3,3.93E2,1.417E3,3.44E2,2.65E2,2.44E2,5.12E2,4.5E2,5.78E2,3.37E2,2.021E3,1.328E3,3.136E3,1.137E3],"tree_param":{"num_deleted":"0","num_feature":"25","num_nodes":"63","size_leaf_vector":"1"}},{"base_weights":[-6.676778E-3,1.0156022E1,-3.8259274E1,1.2370277E1,-4.3446953E1,-8.676904E0,-4.4265175E1,1.4889321E1,-2.9664492E1,-2.2909323E1,-6.3287746E1,4.3085427E0,-2.3972012E1,-3.477881E1,-5.083998E1,2.0834526E1,1.5486727E0,-1.839689E1,-5.5620613E1,-1.4176124E1,-5.0956017E1,-4.987626E1,-7.1183014E1,1.0339625E1,-3.7612144E1,-3.7617348E1,-6.1115336E0,-2.791897E1,-4.6969414E1,-4.1280293E1,-5.3053802E1,3.0697317E0,3.5707384E-1,1.3347479E0,-4.592774E0,-4.0862675E0,-8.616301E-1,-4.519543E0,-7.549994E0,6.9731194E-1,-2.6165116E0,-4.2335453E0,-6.379762E0,-3.8433805E0,-5.7591505E0,-6.670583E0,-7.817936E0,-4.407457E0,1.3698255E0,-2.7383628E0,-4.6942005E0,-1.9991944E0,-4.0399256E0,1.5521005E0,-2.1563623E0,-3.8958E0,-1.1699952E0,-4.318207E0,-6.448382E0,-2.9856286E0,-4.7579703E0,-4.3816333E0,-5.534403E0],"categories":[],"categories_nodes":[],"categories_segments":[],"categories_sizes":[],"default_left":[0,0,0,0,0,0,0,0,0,0,0,0,0,0,0,0,0,0,0,0,0,0,0,0,0,0,0,0,0,0,0,0,0,0,0,0,0,0,0,0,0,0,0,0,0,0,0,0,0,0,0,0,0,0,0,0,0,0,0,0,0,0,0],"id":7,"left_children":[1,3,5,7,9,11,13,15,17,19,21,23,25,27,29,31,33,35,37,39,41,43,45,47,49,51,53,55,57,59,61,-1,-1,-1,-1,-1,-1,-1,-1,-1,-1,-1,-1,-1,-1,-1,-1,-1,-1,-1,-1,-1,-1,-1,-1,-1,-1,-1,-1,-1,-1,-1,-1],"loss_changes":[2.3811302E7,5.7444555E6,2.283904E6,4.921558E6,7.8091725E5,4.312938E5,6.6479E5,3.477679E6,7.6757E5,2.3074347E5,9.97955E4,2.9746078E5,2.4275125E5,3.64801E5,1.31351E5,5.164323E6,7.5729225E6,4.026302E5,1.6134825E5,1.8325139E5,2.2096312E4,3.000925E4,1.395525E4,1.8847805E5,1.2838297E4,2.6895562E4,1.4507269E5,5.0157875E5,1.0169025E5,8.4289125E4,1.05893E5,0E0,0E0,0E0,0E0,0E0,0E0,0E0,0E0,0E0,0E0,0E0,0E0,0E0,0E0,0E0,0E0,0E0,0E0,0E0,0E0,0E0,0E0,0E0,0E0,0E0,0E0,0E0,0E0,0E0,0E0,0E0,0E0],"parents":[2147483647,0,0,1,1,2,2,3,3,4,4,5,5,6,6,7,7,8,8,9,9,10,10,11,11,12,12,13,13,14,14,15,15,16,16,17,17,18,18,19,19,20,20,21,21,22,22,23,23,24,24,25,25,26,26,27,27,28,28,29,29,30,30],"right_children":[2,4,6,8,10,12,14,16,18,20,22,24,26,28,30,32,34,36,38,40,42,44,46,48,50,52,54,56,58,60,62,-1,-1,-1,-1,-1,-1,-1,-1,-1,-1,-1,-1,-1,-1,-1,-1,-1,-1,-1,-1,-1,-1,-1,-1,-1,-1,-1,-1,-1,-1,-1,-1],"split_conditions":[4.19452E-1,2.1769283E0,-2.6346183E-1,1.41684E0,-1.8235219E0,-5.204047E-1,4.2031005E-1,9.181687E-2,1.621539E0,-2.1545398E0,2.235433E0,4.210121E-1,-6.6118217E-1,7.183253E-1,-5.6404316E-1,4.1859394E-1,-6.0602874E-1,1.836641E0,1.1245285E0,-1.2746139E0,-2.1528888E0,-1.2386621E0,2.2827432E0,-1.0818309E0,4.2179215E-1,-5.653585E-1,-3.815718E-2,3.501953E-1,1.5555804E0,-5.204047E-1,3.347524E-1,3.0697317E0,3.5707384E-1,1.3347479E0,-4.592774E0,-4.0862675E0,-8.616301E-1,-4.519543E0,-7.549994E0,6.9731194E-1,-2.6165116E0,-4.2335453E0,-6.379762E0,-3.8433805E0,-5.7591505E0,-6.670583E0,-7.817936E0,-4.407457E0,1.3698255E0,-2.7383628E0,-4.6942005E0,-1.9991944E0,-4.0399256E0,1.5521005E0,-2.1563623E0,-3.8958E0,-1.1699952E0,-4.318207E0,-6.448382E0,-2.9856286E0,-4.7579703E0,-4.3816333E0,-5.534403E0],"split_indices":[15,17,13,13,13,12,15,17,11,10,17,15,8,8,6,15,6,14,16,6,10,6,17,8,15,11,10,14,13,12,16,0,0,0,0,0,0,0,0,0,0,0,0,0,0,0,0,0,0,0,0,0,0,0,0,0,0,0,0,0,0,0,0],"split_type":[0,0,0,0,0,0,0,0,0,0,0,0,0,0,0,0,0,0,0,0,0,0,0,0,0,0,0,0,0,0,0,0,0,0,0,0,0,0,0,0,0,0,0,0,0,0,0,0,0,0,0,0,0,0,0,0,0,0,0,0,0,0,0],"sum_hessian":[6.1249E4,4.8393E4,1.2856E4,4.6474E4,1.919E3,2.17E3,1.0686E4,4.3847E4,2.627E3,9.44E2,9.75E2,1.174E3,9.96E2,4.377E3,6.309E3,3.033E4,1.3517E4,1.833E3,7.94E2,7.21E2,2.23E2,3.64E2,6.11E2,1.027E3,1.47E2,5.64E2,4.32E2,2.803E3,1.574E3,1.19E3,5.119E3,1.9302E4,1.1028E4,1.0827E4,2.69E3,5.55E2,1.278E3,5.23E2,2.71E2,2.61E2,4.6E2,1.36E2,8.7E1,1.49E2,2.15E2,3.79E2,2.32E2,5.9E1,9.68E2,7.2E1,7.5E1,7.8E1,4.86E2,1.8E2,2.52E2,1.667E3,1.136E3,1.297E3,2.77E2,4.25E2,7.65E2,1.021E3,4.098E3],"tree_param":{"num_deleted":"0","num_feature":"25","num_nodes":"63","size_leaf_vector":"1"}},{"base_weights":[-7.7080773E-3,1.15181E1,-2.7533081E1,1.832552E1,-6.6290627E0,3.1929603E0,-3.2906902E1,3.908427E1,1.2332471E1,2.5731892E1,-2.807571E1,-2.8437363E1,7.5024123E0,-1.8614155E1,-4.1571026E1,5.5817852E1,3.2995E1,1.575332E1,-2.6200033E1,3.8698326E1,-2.8542721E0,-2.1616016E1,-6.936013E1,-1.9098066E1,-3.4236927E1,1.9871296E1,-9.114994E0,-1.2413179E1,-3.4477547E1,-1.6313417E1,-4.2945553E1,7.222992E0,4.8575892E0,6.453865E0,2.9819472E0,1.9969847E0,-1.8916606E0,-1.0367833E0,-4.5078883E0,6.6217766E0,3.3308403E0,-4.9859843E0,5.396588E-1,-1.4791948E0,-6.443123E0,-4.356406E0,-7.346596E0,-9.902139E-1,-2.9048555E0,-3.5854797E0,-1.8893217E0,3.794679E0,1.299492E0,-3.9555948E0,-1.1119014E-2,-1.0809454E0,-7.1623597E0,-5.0323825E0,-2.206707E0,-3.1120133E0,-3.183578E-1,-3.9801872E0,-5.0490556E0],"categories":[],"categories_nodes":[],"categories_segments":[],"categories_sizes":[],"default_left":[0,0,0,0,0,0,0,0,0,0,0,0,0,0,0,0,0,0,0,0,0,0,0,0,0,0,0,0,0,0,0,0,0,0,0,0,0,0,0,0,0,0,0,0,0,0,0,0,0,0,0,0,0,0,0,0,0,0,0,0,0,0,0],"id":8,"left_children":[1,3,5,7,9,11,13,15,17,19,21,23,25,27,29,31,33,35,37,39,41,43,45,47,49,51,53,55,57,59,61,-1,-1,-1,-1,-1,-1,-1,-1,-1,-1,-1,-1,-1,-1,-1,-1,-1,-1,-1,-1,-1,-1,-1,-1,-1,-1,-1,-1,-1,-1,-1,-1],"loss_changes":[1.943201E7,5.3335135E6,2.985076E6,3.905438E6,8.175055E6,3.6715812E5,1.904662E6,7.14788E5,3.2119258E6,1.7403622E6,1.887695E6,1.6841062E4,4.87308E5,5.709949E5,3.31855E5,2.193455E5,5.148405E5,3.2717435E6,5.934345E5,4.768925E5,5.688371E5,1.789197E6,9.82655E4,1.1241855E4,4.2377812E3,1.6842231E5,2.7736894E5,3.959572E5,3.1983838E5,9.632819E4,2.13455E5,0E0,0E0,0E0,0E0,0E0,0E0,0E0,0E0,0E0,0E0,0E0,0E0,0E0,0E0,0E0,0E0,0E0,0E0,0E0,0E0,0E0,0E0,0E0,0E0,0E0,0E0,0E0,0E0,0E0,0E0,0E0,0E0],"parents":[2147483647,0,0,1,1,2,2,3,3,4,4,5,5,6,6,7,7,8,8,9,9,10,10,11,11,12,12,13,13,14,14,15,15,16,16,17,17,18,18,19,19,20,20,21,21,22,22,23,23,24,24,25,25,26,26,27,27,28,28,29,29,30,30],"right_children":[2,4,6,8,10,12,14,16,18,20,22,24,26,28,30,32,34,36,38,40,42,44,46,48,50,52,54,56,58,60,62,-1,-1,-1,-1,-1,-1,-1,-1,-1,-1,-1,-1,-1,-1,-1,-1,-1,-1,-1,-1,-1,-1,-1,-1,-1,-1,-1,-1,-1,-1,-1,-1],"split_conditions":[4.19062E-1,1.3392957E-1,-2.850437E-1,-3.158749E-1,-1.9098492E0,-1.079994E0,4.1968602E-1,-1.1507652E-1,5E0,-1.5191321E0,-7.225582E-1,-1.1431971E-1,-4.931169E-1,7.6454616E-1,-5.443449E-1,7.9003155E-2,4.1695586E-1,1.6949667E0,-2.603787E-1,-1.5581319E0,-4.7381896E-1,-1.5555254E-1,-2.38639E0,-5.9061635E-1,-1.0154204E0,-6.8472034E-1,-6.6118217E-1,1.4645676E-1,1.8339691E0,1.3455279E-2,4.2194816E-1,7.222992E0,4.8575892E0,6.453865E0,2.9819472E0,1.9969847E0,-1.8916606E0,-1.0367833E0,-4.5078883E0,6.6217766E0,3.3308403E0,-4.9859843E0,5.396588E-1,-1.4791948E0,-6.443123E0,-4.356406E0,-7.346596E0,-9.902139E-1,-2.9048555E0,-3.5854797E0,-1.8893217E0,3.794679E0,1.299492E0,-3.9555948E0,-1.1119014E-2,-1.0809454E0,-7.1623597E0,-5.0323825E0,-2.206707E0,-3.1120133E0,-3.183578E-1,-3.9801872E0,-5.0490556E0],"split_indices":[15,17,13,13,13,8,15,10,24,11,9,10,11,4,11,16,15,6,13,11,8,13,15,11,23,6,8,17,14,17,15,0,0,0,0,0,0,0,0,0,0,0,0,0,0,0,0,0,0,0,0,0,0,0,0,0,0,0,0,0,0,0,0],"split_type":[0,0,0,0,0,0,0,0,0,0,0,0,0,0,0,0,0,0,0,0,0,0,0,0,0,0,0,0,0,0,0,0,0,0,0,0,0,0,0,0,0,0,0,0,0,0,0,0,0,0,0,0,0,0,0,0,0,0,0,0,0,0,0],"sum_hessian":[6.1249E4,4.3172E4,1.8077E4,3.1395E4,1.1777E4,2.691E3,1.5386E4,7.032E3,2.4363E4,4.694E3,7.083E3,3.22E2,2.369E3,5.808E3,9.578E3,1.874E3,5.158E3,2.2377E4,1.986E3,3.229E3,1.465E3,6.126E3,9.57E2,1.25E2,1.97E2,1.358E3,1.011E3,4.177E3,1.631E3,4.95E2,9.083E3,5.71E2,1.303E3,4.7E2,4.688E3,1.9951E4,2.426E3,1.081E3,9.05E2,5.27E2,2.702E3,2.18E2,1.247E3,5.285E3,8.41E2,1.33E2,8.24E2,6.6E1,5.9E1,1.77E2,2E1,3.73E2,9.85E2,2.3E2,7.81E2,4.068E3,1.09E2,7.15E2,9.16E2,2.32E2,2.63E2,6.416E3,2.667E3],"tree_param":{"num_deleted":"0","num_feature":"25","num_nodes":"63","size_leaf_vector":"1"}},{"base_weights":[-7.4941507E-3,1.1501877E1,-2.2600313E1,1.9633934E1,-3.8209631E0,-1.0962123E1,-3.4819096E1,2.182852E1,-2.724424E1,3.068324E1,-1.5249099E1,-4.3248973E0,-2.85084E1,-9.109573E0,-3.8697075E1,3.6507153E1,1.7325806E1,-1.56909685E1,-6.2085846E1,4.37176E1,7.6947184E0,5.6664776E1,-2.0747272E1,-1.6337649E0,-3.679878E1,-6.6263664E1,-2.5345638E1,7.05778E0,-2.723143E1,-3.0405537E1,-4.169071E1,3.896832E0,1.2347356E0,2.460975E0,-3.0932125E-1,-4.9871345E0,-7.8069276E-1,6.9378953E0,-6.367411E0,-9.704978E-1,4.627802E0,-2.3789897E0,2.9119086E0,-2.6674242E0,5.874769E0,-1.521056E0,-5.6326537E0,-2.6904469E0,1.6263233E-1,-1.7959156E0,-4.992372E0,4.9532924E0,-6.805969E0,-1.7225361E0,-4.557104E0,1.3419546E0,-2.5086107E0,-3.3023098E0,-4.3063745E-1,-2.614875E0,-5.8448257E0,-3.7696748E0,-4.5906425E0],"categories":[],"categories_nodes":[],"categories_segments":[],"categories_sizes":[],"default_left":[0,0,0,0,0,0,0,0,0,0,0,0,0,0,0,0,0,0,0,0,0,0,0,0,0,0,0,0,0,0,0,0,0,0,0,0,0,0,0,0,0,0,0,0,0,0,0,0,0,0,0,0,0,0,0,0,0,0,0,0,0,0,0],"id":9,"left_children":[1,3,5,7,9,11,13,15,17,19,21,23,25,27,29,31,33,35,37,39,41,43,45,47,49,51,53,55,57,59,61,-1,-1,-1,-1,-1,-1,-1,-1,-1,-1,-1,-1,-1,-1,-1,-1,-1,-1,-1,-1,-1,-1,-1,-1,-1,-1,-1,-1,-1,-1,-1,-1],"loss_changes":[1.5927045E7,5.0564715E6,2.939269E6,2.727894E6,5.5485325E6,1.2330568E6,1.005033E6,1.673191E6,4.764318E5,1.0487058E6,4.180502E6,6.714564E5,3.453285E5,3.8780797E5,2.16221E5,3.52957E5,2.8827805E6,2.3998639E5,6.6014E4,3.060245E5,8.560068E5,1.319315E5,1.933606E6,5.8472806E5,1.4449756E5,4.9957438E4,4.3985975E5,1.4348097E5,8.270894E4,2.763695E5,1.06618E5,0E0,0E0,0E0,0E0,0E0,0E0,0E0,0E0,0E0,0E0,0E0,0E0,0E0,0E0,0E0,0E0,0E0,0E0,0E0,0E0,0E0,0E0,0E0,0E0,0E0,0E0,0E0,0E0,0E0,0E0,0E0,0E0],"parents":[2147483647,0,0,1,1,2,2,3,3,4,4,5,5,6,6,7,7,8,8,9,9,10,10,11,11,12,12,13,13,14,14,15,15,16,16,17,17,18,18,19,19,20,20,21,21,22,22,23,23,24,24,25,25,26,26,27,27,28,28,29,29,30,30],"right_children":[2,4,6,8,10,12,14,16,18,20,22,24,26,28,30,32,34,36,38,40,42,44,46,48,50,52,54,56,58,60,62,-1,-1,-1,-1,-1,-1,-1,-1,-1,-1,-1,-1,-1,-1,-1,-1,-1,-1,-1,-1,-1,-1,-1,-1,-1,-1,-1,-1,-1,-1,-1,-1],"split_conditions":[4.1890597E-1,1.0234505E-1,4.19764E-1,1.608361E0,-1.9345142E0,7.541023E-1,-6.2278944E-1,-6.671216E-1,1.0260109E0,-2.155572E0,-1.079994E0,7.905524E-1,-1.406774E-1,-5.204047E-1,3.347524E-1,-2.7887744E-1,-7.29024E-2,1.8388307E0,1.3120137E0,-4.7565585E-1,-4.7198206E-1,-1.0836678E0,-7.225582E-1,-1.079994E0,-8.750426E-1,5.671588E-1,1.4908348E0,4.210121E-1,-6.6118217E-1,5.751475E-1,4.2140213E-1,3.896832E0,1.2347356E0,2.460975E0,-3.0932125E-1,-4.9871345E0,-7.8069276E-1,6.9378953E0,-6.367411E0,-9.704978E-1,4.627802E0,-2.3789897E0,2.9119086E0,-2.6674242E0,5.874769E0,-1.521056E0,-5.6326537E0,-2.6904469E0,1.6263233E-1,-1.7959156E0,-4.992372E0,4.9532924E0,-6.805969E0,-1.7225361E0,-4.557104E0,1.3419546E0,-2.5086107E0,-3.3023098E0,-4.3063745E-1,-2.614875E0,-5.8448257E0,-3.7696748E0,-4.5906425E0],"split_indices":[15,17,15,11,13,4,6,6,16,10,8,11,16,12,16,13,17,8,13,8,8,8,9,8,17,5,13,15,8,13,15,0,0,0,0,0,0,0,0,0,0,0,0,0,0,0,0,0,0,0,0,0,0,0,0,0,0,0,0,0,0,0,0],"split_type":[0,0,0,0,0,0,0,0,0,0,0,0,0,0,0,0,0,0,0,0,0,0,0,0,0,0,0,0,0,0,0,0,0,0,0,0,0,0,0,0,0,0,0,0,0,0,0,0,0,0,0,0,0,0,0,0,0,0,0,0,0,0,0],"sum_hessian":[6.1249E4,4.0578E4,2.0671E4,2.6509E4,1.4069E4,1.0588E4,1.0083E4,2.5324E4,1.185E3,3.5E3,1.0569E4,7.683E3,2.905E3,1.322E3,8.761E3,5.943E3,1.9381E4,8.91E2,2.94E2,2.233E3,1.267E3,7.5E2,9.819E3,7.096E3,5.87E2,2.23E2,2.682E3,6.99E2,6.23E2,2.327E3,6.434E3,5.393E3,5.5E2,1.4285E4,5.096E3,1.66E2,7.25E2,3E0,2.91E2,1.02E2,2.131E3,5.13E2,7.54E2,1.8E1,7.32E2,8.498E3,1.321E3,8.1E2,6.286E3,2.42E2,3.45E2,3E0,2.2E2,1.915E3,7.67E2,5.84E2,1.15E2,4.97E2,1.26E2,2.022E3,3.05E2,3.309E3,3.125E3],"tree_param":{"num_deleted":"0","num_feature":"25","num_nodes":"63","size_leaf_vector":"1"}},{"base_weights":[-7.344577E-3,1.0351748E1,-2.0342176E1,1.218285E1,-4.9799156E1,-1.0428538E1,-3.1999517E1,1.8399235E1,2.051354E0,-3.520841E1,-5.9457157E1,-4.28436E0,-2.5830065E1,-1.2390895E1,-3.5782772E1,4.7052513E1,1.4569514E1,9.579339E0,-4.0732437E1,-2.614008E1,-4.61709E1,-5.1856976E1,-6.4886475E1,-1.759614E0,-3.3024593E1,-5.9071037E1,-2.3028585E1,2.936994E0,-2.686987E1,-2.832494E1,-3.8326355E1,2.157826E0,6.4027762E0,1.756613E0,-1.6925954E0,1.6779654E0,-3.670139E0,-2.7196834E0,-5.805843E0,-3.8674183E0,-1.805939E0,-4.1990237E0,-5.9928417E0,-4.0048385E0,-5.553348E0,-5.4271693E0,-6.655755E0,-3.9167892E-2,-5.651304E0,-1.6357889E0,-4.4904876E0,-3.12652E0,-6.8022065E0,-1.5934744E0,-4.1505246E0,3.1390767E0,-3.9571816E-1,-3.1084404E0,-9.922264E-1,-2.4412692E0,-5.3940825E0,-3.2255833E0,-4.140821E0],"categories":[],"categories_nodes":[],"categories_segments":[],"categories_sizes":[],"default_left":[0,0,0,0,0,0,0,0,0,0,0,0,0,0,0,0,0,0,0,0,0,0,0,0,0,0,0,0,0,0,0,0,0,0,0,0,0,0,0,0,0,0,0,0,0,0,0,0,0,0,0,0,0,0,0,0,0,0,0,0,0,0,0],"id":10,"left_children":[1,3,5,7,9,11,13,15,17,19,21,23,25,27,29,31,33,35,37,39,41,43,45,47,49,51,53,55,57,59,61,-1,-1,-1,-1,-1,-1,-1,-1,-1,-1,-1,-1,-1,-1,-1,-1,-1,-1,-1,-1,-1,-1,-1,-1,-1,-1,-1,-1,-1,-1,-1,-1],"loss_changes":[1.2902549E7,4.470074E6,2.38866E6,2.4802275E6,1.6686675E5,1.0571872E6,7.0431E5,2.6774845E6,4.8237965E6,4.6510562E4,2.6345E4,5.795655E5,2.953325E5,3.4141056E5,1.49968E5,1.242725E6,2.032294E6,4.244707E6,5.23975E5,2.6141906E4,9.906969E3,1.1017375E4,3.766875E3,5.5003706E5,1.2697881E5,5.9349312E4,3.8468588E5,1.4685584E5,5.6189688E4,2.0202075E5,1.09699E5,0E0,0E0,0E0,0E0,0E0,0E0,0E0,0E0,0E0,0E0,0E0,0E0,0E0,0E0,0E0,0E0,0E0,0E0,0E0,0E0,0E0,0E0,0E0,0E0,0E0,0E0,0E0,0E0,0E0,0E0,0E0,0E0],"parents":[2147483647,0,0,1,1,2,2,3,3,4,4,5,5,6,6,7,7,8,8,9,9,10,10,11,11,12,12,13,13,14,14,15,15,16,16,17,17,18,18,19,19,20,20,21,21,22,22,23,23,24,24,25,25,26,26,27,27,28,28,29,29,30,30],"right_children":[2,4,6,8,10,12,14,16,18,20,22,24,26,28,30,32,34,36,38,40,42,44,46,48,50,52,54,56,58,60,62,-1,-1,-1,-1,-1,-1,-1,-1,-1,-1,-1,-1,-1,-1,-1,-1,-1,-1,-1,-1,-1,-1,-1,-1,-1,-1,-1,-1,-1,-1,-1,-1],"split_conditions":[4.1890597E-1,2.205581E0,4.1984203E-1,7.7823736E-2,-1.8111893E0,7.516921E-1,-6.0829145E-1,4.1711184E-1,-2.0179938E-1,-1.4996322E0,2.2559562E0,7.905524E-1,-1.406774E-1,-5.204047E-1,3.347524E-1,3.6931542E-1,1.3983412E0,-7.286044E-1,-5.530649E-1,-6.696983E-1,-1.89427E0,-1.2386621E0,-1.2195549E0,1.4645676E-1,-8.750426E-1,5.443163E-1,1.4908348E0,-6.8472034E-1,-6.6118217E-1,5.0177103E-1,-7.957482E-1,2.157826E0,6.4027762E0,1.756613E0,-1.6925954E0,1.6779654E0,-3.670139E0,-2.7196834E0,-5.805843E0,-3.8674183E0,-1.805939E0,-4.1990237E0,-5.9928417E0,-4.0048385E0,-5.553348E0,-5.4271693E0,-6.655755E0,-3.9167892E-2,-5.651304E0,-1.6357889E0,-4.4904876E0,-3.12652E0,-6.8022065E0,-1.5934744E0,-4.1505246E0,3.1390767E0,-3.9571816E-1,-3.1084404E0,-9.922264E-1,-2.4412692E0,-5.3940825E0,-3.2255833E0,-4.140821E0],"split_indices":[15,17,15,17,13,4,6,15,13,11,17,11,16,12,16,8,13,14,6,22,16,6,6,17,17,13,13,6,8,6,17,0,0,0,0,0,0,0,0,0,0,0,0,0,0,0,0,0,0,0,0,0,0,0,0,0,0,0,0,0,0,0,0],"split_type":[0,0,0,0,0,0,0,0,0,0,0,0,0,0,0,0,0,0,0,0,0,0,0,0,0,0,0,0,0,0,0,0,0,0,0,0,0,0,0,0,0,0,0,0,0,0,0,0,0,0,0,0,0,0,0,0,0,0,0,0,0,0,0],"sum_hessian":[6.1249E4,4.0578E4,2.0671E4,3.938E4,1.198E3,1.1172E4,9.499E3,2.4405E4,1.4975E4,4.79E2,7.19E2,7.987E3,3.185E3,1.537E3,7.962E3,2.876E3,2.1529E4,1.2735E4,2.24E3,2.64E2,2.15E2,3.04E2,4.15E2,7.343E3,6.44E2,2.46E2,2.939E3,7.47E2,7.9E2,2.028E3,5.934E3,1.151E3,1.725E3,1.9659E4,1.87E3,1.1021E4,1.714E3,1.259E3,9.81E2,1.02E2,1.62E2,1.68E2,4.7E1,7.5E1,2.29E2,6.1E1,3.54E2,7.165E3,1.78E2,2.69E2,3.75E2,6.1E1,1.85E2,2.125E3,8.14E2,1.45E2,6.02E2,6.32E2,1.58E2,1.761E3,2.67E2,2.002E3,3.932E3],"tree_param":{"num_deleted":"0","num_feature":"25","num_nodes":"63","size_leaf_vector":"1"}},{"base_weights":[-7.969991E-3,7.05735E0,-2.44068E1,8.913743E0,-3.1798178E1,-2.0565914E-2,-2.8015577E1,1.9682085E1,3.0357592E0,-1.533342E1,-4.7048126E1,9.612081E0,-1.2478264E1,-2.1415783E1,-3.3497505E1,3.450938E1,1.15900955E1,1.2041674E1,-1.4262429E1,-7.023241E0,-3.6682465E1,-3.4261547E1,-5.5315662E1,1.6143858E1,-1.5520171E1,-2.106763E1,1.3849842E1,-1.6482128E1,-3.163335E1,-2.5263023E1,-3.544509E1,4.0633645E0,1.0738171E0,3.3651564E-1,2.2698414E0,3.7679908E0,3.2992736E-1,1.774116E-1,-3.2348518E0,6.290323E-1,-2.0496016E0,-3.036488E0,-5.2491345E0,-2.6076105E0,-4.5066953E0,-4.855685E0,-5.886046E0,-3.0877259E0,1.9273767E0,-1.6724281E-1,-2.869894E0,-2.954459E0,-1.305423E0,2.2849092E0,-1.9631538E0,-2.466183E0,-1.6394842E-1,-3.6201348E0,-2.0672562E0,-1.2185382E0,-2.8751297E0,-3.886664E0,-3.2458363E0],"categories":[],"categories_nodes":[],"categories_segments":[],"categories_sizes":[],"default_left":[0,0,0,0,0,0,0,0,0,0,0,0,0,0,0,0,0,0,0,0,0,0,0,0,0,0,0,0,0,0,0,0,0,0,0,0,0,0,0,0,0,0,0,0,0,0,0,0,0,0,0,0,0,0,0,0,0,0,0,0,0,0,0],"id":11,"left_children":[1,3,5,7,9,11,13,15,17,19,21,23,25,27,29,31,33,35,37,39,41,43,45,47,49,51,53,55,57,59,61,-1,-1,-1,-1,-1,-1,-1,-1,-1,-1,-1,-1,-1,-1,-1,-1,-1,-1,-1,-1,-1,-1,-1,-1,-1,-1,-1,-1,-1,-1,-1,-1],"loss_changes":[1.0558786E7,3.4262955E6,1.2104135E6,2.869281E6,5.431325E5,2.13001E5,4.3275E5,1.9201575E6,4.568752E6,1.8478558E5,1.1692675E5,1.64573E5,1.7532547E5,2.7365825E5,1.04037E5,8.222425E5,9.461934E5,4.322634E6,2.912333E6,1.3501566E5,2.7569281E4,3.8095344E4,1.345775E4,1.1759672E5,3.7728715E4,3.9285E4,5.799826E4,4.455283E5,8.7873375E4,5.6900688E4,5.2788E4,0E0,0E0,0E0,0E0,0E0,0E0,0E0,0E0,0E0,0E0,0E0,0E0,0E0,0E0,0E0,0E0,0E0,0E0,0E0,0E0,0E0,0E0,0E0,0E0,0E0,0E0,0E0,0E0,0E0,0E0,0E0,0E0],"parents":[2147483647,0,0,1,1,2,2,3,3,4,4,5,5,6,6,7,7,8,8,9,9,10,10,11,11,12,12,13,13,14,14,15,15,16,16,17,17,18,18,19,19,20,20,21,21,22,22,23,23,24,24,25,25,26,26,27,27,28,28,29,29,30,30],"right_children":[2,4,6,8,10,12,14,16,18,20,22,24,26,28,30,32,34,36,38,40,42,44,46,48,50,52,54,56,58,60,62,-1,-1,-1,-1,-1,-1,-1,-1,-1,-1,-1,-1,-1,-1,-1,-1,-1,-1,-1,-1,-1,-1,-1,-1,-1,-1,-1,-1,-1,-1,-1,-1],"split_conditions":[4.19374E-1,2.170265E0,-2.850437E-1,-3.004593E-1,-1.2386621E0,-5.204047E-1,4.2031005E-1,-7.414584E-1,-7.29024E-2,-1.4996322E0,-1.8111893E0,-6.3600874E-1,-6.5934527E-1,8.4029603E-1,-1.9563313E-1,-1.1473252E-1,6.818915E-2,4.1789192E-1,-6.015034E-1,-1.4298025E0,-2.1528888E0,-1.5081801E0,-1.777275E0,-1.0818309E0,4.024215E-2,-6.6301906E-1,1.8662561E-1,3.609186E-1,1.7969203E0,-9.8032135E-1,3.4682536E-1,4.0633645E0,1.0738171E0,3.3651564E-1,2.2698414E0,3.7679908E0,3.2992736E-1,1.774116E-1,-3.2348518E0,6.290323E-1,-2.0496016E0,-3.036488E0,-5.2491345E0,-2.6076105E0,-4.5066953E0,-4.855685E0,-5.886046E0,-3.0877259E0,1.9273767E0,-1.6724281E-1,-2.869894E0,-2.954459E0,-1.305423E0,2.2849092E0,-1.9631538E0,-2.466183E0,-1.6394842E-1,-3.6201348E0,-2.0672562E0,-1.2185382E0,-2.8751297E0,-3.886664E0,-3.2458363E0],"split_indices":[15,17,13,13,6,12,15,14,17,11,13,4,8,13,13,10,0,15,6,19,10,11,13,8,17,8,16,9,23,9,9,0,0,0,0,0,0,0,0,0,0,0,0,0,0,0,0,0,0,0,0,0,0,0,0,0,0,0,0,0,0,0,0],"split_type":[0,0,0,0,0,0,0,0,0,0,0,0,0,0,0,0,0,0,0,0,0,0,0,0,0,0,0,0,0,0,0,0,0,0,0,0,0,0,0,0,0,0,0,0,0,0,0,0,0,0,0,0,0,0,0,0,0,0,0,0,0,0,0],"sum_hessian":[6.1249E4,4.7496E4,1.3753E4,4.5331E4,2.165E3,1.773E3,1.198E4,1.6006E4,2.9325E4,1.042E3,1.123E3,1E3,7.73E2,5.438E3,6.542E3,5.65E3,1.0356E4,1.9285E4,1.004E4,7.51E2,2.91E2,4.43E2,6.8E2,7.94E2,2.06E2,5.83E2,1.9E2,3.669E3,1.769E3,1.254E3,5.288E3,4.492E3,1.158E3,5.951E3,4.405E3,4.903E3,1.4382E4,5.322E3,4.718E3,3.78E2,3.73E2,2.1E2,8.1E1,2.54E2,1.89E2,2.39E2,4.41E2,4.9E1,7.45E2,1.01E2,1.05E2,2.82E2,3.01E2,1.5E2,4E1,2.365E3,1.304E3,1.247E3,5.22E2,2.65E2,9.89E2,2.459E3,2.829E3],"tree_param":{"num_deleted":"0","num_feature":"25","num_nodes":"63","size_leaf_vector":"1"}},{"base_weights":[-7.931544E-3,8.515144E0,-1.6738674E1,1.0739288E1,-2.6902197E1,3.9960876E-1,-2.1422564E1,1.1719739E1,-3.361593E1,-1.0615366E1,-4.0742836E1,-2.4690083E1,8.705042E0,-1.276556E1,-2.8258194E1,1.751275E1,3.4251983E0,-1.8826506E1,-5.6824135E1,-2.8073468E0,-3.617726E1,-3.1544853E1,-4.9132195E1,8.310652E-1,-2.5750235E1,2.7025362E1,2.187779E0,-8.556522E0,-3.1431486E1,-2.0264977E1,-3.0287958E1,5.1507864E0,1.4767628E0,1.2739377E0,-2.6673036E0,-4.428234E0,-9.3500835E-1,8.946436E0,-5.7560863E0,6.0949383E0,-5.145039E-1,-3.0947394E0,-5.005404E0,-2.556206E0,-4.181648E0,-1.4295814E0,-5.022726E0,-1.1291846E0,4.439044E0,-3.3399026E0,-2.357862E0,3.7373066E0,1.8549846E0,-1.0238874E0,1.6020552E0,1.5154453E-1,-2.256566E0,-1.2002335E0,-4.2079444E0,-1.4413399E0,-4.234195E0,-2.9315426E0,-4.235834E0],"categories":[],"categories_nodes":[],"categories_segments":[],"categories_sizes":[],"default_left":[0,0,0,0,0,0,0,0,0,0,0,0,0,0,0,0,0,0,0,0,0,0,0,0,0,0,0,0,0,0,0,0,0,0,0,0,0,0,0,0,0,0,0,0,0,0,0,0,0,0,0,0,0,0,0,0,0,0,0,0,0,0,0],"id":12,"left_children":[1,3,5,7,9,11,13,15,17,19,21,23,25,27,29,31,33,35,37,39,41,43,45,47,49,51,53,55,57,59,61,-1,-1,-1,-1,-1,-1,-1,-1,-1,-1,-1,-1,-1,-1,-1,-1,-1,-1,-1,-1,-1,-1,-1,-1,-1,-1,-1,-1,-1,-1,-1,-1],"loss_changes":[8.734232E6,3.1968292E6,1.6594285E6,1.6608555E6,5.401251E5,9.2500875E5,9.60363E5,1.794958E6,2.824432E5,2.2004375E5,9.845625E4,2.9891562E4,3.981343E5,5.626534E5,1.46557E5,2.05183E6,4.3072085E6,1.2164845E5,3.9745312E4,1.2640446E5,1.7174969E4,3.7093375E4,2.507E4,2.4264236E4,1.6819375E4,7.6046125E4,4.2319778E5,8.2518456E5,2.7216388E5,2.370905E5,8.36535E4,0E0,0E0,0E0,0E0,0E0,0E0,0E0,0E0,0E0,0E0,0E0,0E0,0E0,0E0,0E0,0E0,0E0,0E0,0E0,0E0,0E0,0E0,0E0,0E0,0E0,0E0,0E0,0E0,0E0,0E0,0E0,0E0],"parents":[2147483647,0,0,1,1,2,2,3,3,4,4,5,5,6,6,7,7,8,8,9,9,10,10,11,11,12,12,13,13,14,14,15,15,16,16,17,17,18,18,19,19,20,20,21,21,22,22,23,23,24,24,25,25,26,26,27,27,28,28,29,29,30,30],"right_children":[2,4,6,8,10,12,14,16,18,20,22,24,26,28,30,32,34,36,38,40,42,44,46,48,50,52,54,56,58,60,62,-1,-1,-1,-1,-1,-1,-1,-1,-1,-1,-1,-1,-1,-1,-1,-1,-1,-1,-1,-1,-1,-1,-1,-1,-1,-1,-1,-1,-1,-1,-1,-1],"split_conditions":[4.1890597E-1,2.1636016E0,-6.185155E-1,9.5364E-1,-1.8420205E0,-1.079994E0,4.1968602E-1,6.0232356E-2,1.0260109E0,-2.387092E0,-1.7957737E0,-1.1480132E-1,-5.6969184E-1,-4.651533E-2,2.4685685E-1,4.1679984E-1,-2.3571372E-1,1.8388307E0,4.1750187E-1,-4.7198206E-1,-2.1528888E0,-1.4996322E0,-1.2746139E0,-1.0239544E0,4.1913998E-1,-6.8078154E-1,-6.6118217E-1,7.905524E-1,-2.2954747E-1,1.4403453E0,1.2817601E0,5.1507864E0,1.4767628E0,1.2739377E0,-2.6673036E0,-4.428234E0,-9.3500835E-1,8.946436E0,-5.7560863E0,6.0949383E0,-5.145039E-1,-3.0947394E0,-5.005404E0,-2.556206E0,-4.181648E0,-1.4295814E0,-5.022726E0,-1.1291846E0,4.439044E0,-3.3399026E0,-2.357862E0,3.7373066E0,1.8549846E0,-1.0238874E0,1.6020552E0,1.5154453E-1,-2.256566E0,-1.2002335E0,-4.2079444E0,-1.4413399E0,-4.234195E0,-2.9315426E0,-4.235834E0],"split_indices":[15,17,6,16,13,8,15,17,16,15,13,10,11,17,16,15,13,8,15,8,10,11,6,22,15,6,8,11,13,18,16,0,0,0,0,0,0,0,0,0,0,0,0,0,0,0,0,0,0,0,0,0,0,0,0,0,0,0,0,0,0,0,0],"split_type":[0,0,0,0,0,0,0,0,0,0,0,0,0,0,0,0,0,0,0,0,0,0,0,0,0,0,0,0,0,0,0,0,0,0,0,0,0,0,0,0,0,0,0,0,0,0,0,0,0,0,0,0,0,0,0,0,0,0,0,0,0,0,0],"sum_hessian":[6.1249E4,4.0578E4,2.0671E4,3.8181E4,2.397E3,4.437E3,1.6234E4,3.7356E4,8.25E2,1.102E3,1.295E3,1.103E3,3.334E3,7.164E3,9.07E3,2.1994E4,1.5362E4,5.05E2,3.2E2,8.45E2,2.57E2,6.2E2,6.75E2,4.4E1,1.059E3,8.74E2,2.46E3,5.847E3,1.317E3,1.839E3,7.231E3,1.642E3,2.0352E4,1.1732E4,3.63E3,1.36E2,3.69E2,1E0,3.19E2,2.9E1,8.16E2,1.89E2,6.8E1,3.94E2,2.26E2,2.1E1,6.54E2,3.5E1,9E0,2.31E2,8.28E2,3.92E2,4.82E2,1.296E3,1.164E3,3.402E3,2.445E3,4.67E2,8.5E2,1.455E3,3.84E2,6.695E3,5.36E2],"tree_param":{"num_deleted":"0","num_feature":"25","num_nodes":"63","size_leaf_vector":"1"}},{"base_weights":[-7.6154754E-3,8.1095085E0,-1.43630085E1,1.3431698E1,-4.939396E0,2.9819453E0,-1.8272152E1,2.8048058E1,8.672566E0,1.2855492E1,-2.8517704E1,-2.0830238E1,1.1525041E1,-9.800407E0,-2.4450556E1,5.2514297E1,2.539432E1,1.3925297E1,-9.952423E0,2.2475658E1,-1.8243639E1,-4.8219814E0,-3.7747463E1,4.2544465E0,-2.449853E1,2.436424E1,4.5543556E0,-7.128547E0,-3.610541E1,-2.0426561E1,-2.8358198E1,-3.4016793E0,5.496665E0,5.654607E-1,2.833526E0,3.356115E0,6.7806995E-1,-6.11172E-2,-2.5533428E0,3.0095031E0,9.3841326E-1,-7.586741E-1,-3.5296273E0,2.6783512E0,-1.8804581E0,-1.4214675E0,-4.7941127E0,3.2426229E0,-7.9875046E-1,-3.3485057E0,-2.1273153E0,2.8742871E0,9.23103E-1,-8.8755894E-1,1.7020501E0,-1.6841906E-1,-2.306184E0,-4.725912E0,-2.7367294E0,-1.6172069E0,-2.9135158E0,-2.394917E0,-3.0903375E0],"categories":[],"categories_nodes":[],"categories_segments":[],"categories_sizes":[],"default_left":[0,0,0,0,0,0,0,0,0,0,0,0,0,0,0,0,0,0,0,0,0,0,0,0,0,0,0,0,0,0,0,0,0,0,0,0,0,0,0,0,0,0,0,0,0,0,0,0,0,0,0,0,0,0,0,0,0,0,0,0,0,0,0],"id":13,"left_children":[1,3,5,7,9,11,13,15,17,19,21,23,25,27,29,31,33,35,37,39,41,43,45,47,49,51,53,55,57,59,61,-1,-1,-1,-1,-1,-1,-1,-1,-1,-1,-1,-1,-1,-1,-1,-1,-1,-1,-1,-1,-1,-1,-1,-1,-1,-1,-1,-1,-1,-1,-1,-1],"loss_changes":[7.137242E6,2.717387E6,1.5001485E6,1.933001E6,4.75665E6,8.281992E5,9.44793E5,4.41858E5,2.051383E6,1.9334041E6,1.0662275E6,9.902347E4,2.680251E5,5.3502006E5,1.63583E5,1.434105E5,3.5744825E5,2.2942195E6,6.713885E5,4.9198E5,2.7723116E5,6.050597E5,8.41076E5,4.785211E4,2.64755E4,6.957556E4,3.2544747E5,5.9981344E5,6.712531E4,1.902285E5,5.8668E4,0E0,0E0,0E0,0E0,0E0,0E0,0E0,0E0,0E0,0E0,0E0,0E0,0E0,0E0,0E0,0E0,0E0,0E0,0E0,0E0,0E0,0E0,0E0,0E0,0E0,0E0,0E0,0E0,0E0,0E0,0E0,0E0],"parents":[2147483647,0,0,1,1,2,2,3,3,4,4,5,5,6,6,7,7,8,8,9,9,10,10,11,11,12,12,13,13,14,14,15,15,16,16,17,17,18,18,19,19,20,20,21,21,22,22,23,23,24,24,25,25,26,26,27,27,28,28,29,29,30,30],"right_children":[2,4,6,8,10,12,14,16,18,20,22,24,26,28,30,32,34,36,38,40,42,44,46,48,50,52,54,56,58,60,62,-1,-1,-1,-1,-1,-1,-1,-1,-1,-1,-1,-1,-1,-1,-1,-1,-1,-1,-1,-1,-1,-1,-1,-1,-1,-1,-1,-1,-1,-1,-1,-1],"split_conditions":[4.1882798E-1,1.3992663E-1,-6.327621E-1,-6.655293E-1,-1.505776E0,-1.079994E0,4.1953E-1,-5.987258E-1,2.0251948E-2,-1.2746139E0,1.7657533E-1,-1.1466372E-1,-5.653585E-1,9.773356E-1,4.2070007E-1,-1.0836678E0,-1.0818309E0,4.177359E-1,-5.2781695E-1,-1.4657633E0,-1.8327712E0,-6.1466146E-1,-2.1323934E0,4.1890597E-1,4.1913998E-1,-9.78247E-1,-6.6118217E-1,-6.3706905E-2,1.835057E0,9.5355624E-1,4.9069995E-1,-3.4016793E0,5.496665E0,5.654607E-1,2.833526E0,3.356115E0,6.7806995E-1,-6.11172E-2,-2.5533428E0,3.0095031E0,9.3841326E-1,-7.586741E-1,-3.5296273E0,2.6783512E0,-1.8804581E0,-1.4214675E0,-4.7941127E0,3.2426229E0,-7.9875046E-1,-3.3485057E0,-2.1273153E0,2.8742871E0,9.23103E-1,-8.8755894E-1,1.7020501E0,-1.6841906E-1,-2.306184E0,-4.725912E0,-2.7367294E0,-1.6172069E0,-2.9135158E0,-2.394917E0,-3.0903375E0],"split_indices":[15,17,6,6,11,8,15,12,17,6,17,10,11,16,15,8,8,15,5,19,13,5,16,15,15,14,8,17,9,6,16,0,0,0,0,0,0,0,0,0,0,0,0,0,0,0,0,0,0,0,0,0,0,0,0,0,0,0,0,0,0,0,0],"split_type":[0,0,0,0,0,0,0,0,0,0,0,0,0,0,0,0,0,0,0,0,0,0,0,0,0,0,0,0,0,0,0,0,0,0,0,0,0,0,0,0,0,0,0,0,0,0,0,0,0,0,0,0,0,0,0,0,0,0,0,0,0,0,0],"sum_hessian":[6.1249E4,3.9126E4,2.2123E4,2.7791E4,1.1335E4,4.069E3,1.8054E4,6.825E3,2.0966E4,6.46E3,4.875E3,1.074E3,2.995E3,7.615E3,1.0439E4,6.66E2,6.159E3,1.6354E4,4.612E3,4.934E3,1.526E3,1.367E3,3.508E3,1.37E2,9.37E2,1.053E3,1.942E3,6.914E3,7.01E2,5.146E3,5.293E3,1.8E1,6.48E2,7.99E2,5.36E3,4.362E3,1.1992E4,2.884E3,1.728E3,3.118E3,1.816E3,9.4E2,5.86E2,4.19E2,9.48E2,1.061E3,2.447E3,4.1E1,9.6E1,2.45E2,6.92E2,8.16E2,2.37E2,9.35E2,1.007E3,5.154E3,1.76E3,3.06E2,3.95E2,3.459E3,1.687E3,1.941E3,3.352E3],"tree_param":{"num_deleted":"0","num_feature":"25","num_nodes":"63","size_leaf_vector":"1"}},{"base_weights":[-7.1348078E-3,7.2985873E0,-1.2927537E1,9.322453E0,-2.0676455E1,4.395929E0,-1.627326E1,1.6534866E1,4.6083217E0,-5.189017E0,-3.1598349E1,-1.7046684E1,8.484883E0,-9.261395E0,-2.2182457E1,6.4413342E0,2.5987791E1,1.2554782E1,-1.5634754E1,6.191612E1,-7.9960995E0,-2.28953E1,-4.0316833E1,4.3499637E0,-2.2831509E1,1.9978369E1,-1.2120028E0,-6.486571E0,-2.8580067E1,-5.2755895E0,-2.3032545E1,2.0959227E0,-2.65761E0,4.9202237E0,2.3314934E0,4.0938997E0,8.137073E-1,-8.515583E-1,-4.0672336E0,3.5740516E0,1.2158559E1,-2.7913392E-1,-2.7962801E0,-1.7873558E0,-3.3409638E0,-3.7094502E0,-4.693605E0,3.6894577E0,-9.013173E-1,-3.0257099E0,-1.7573115E0,3.0972812E0,1.2869803E0,-3.1870334E0,7.055016E-1,-4.428476E0,-4.7484213E-1,-3.9724114E0,-1.7213465E0,-1.8806266E0,1.0850397E0,-2.1328106E0,-2.9134328E0],"categories":[],"categories_nodes":[],"categories_segments":[],"categories_sizes":[],"default_left":[0,0,0,0,0,0,0,0,0,0,0,0,0,0,0,0,0,0,0,0,0,0,0,0,0,0,0,0,0,0,0,0,0,0,0,0,0,0,0,0,0,0,0,0,0,0,0,0,0,0,0,0,0,0,0,0,0,0,0,0,0,0,0],"id":14,"left_children":[1,3,5,7,9,11,13,15,17,19,21,23,25,27,29,31,33,35,37,39,41,43,45,47,49,51,53,55,57,59,61,-1,-1,-1,-1,-1,-1,-1,-1,-1,-1,-1,-1,-1,-1,-1,-1,-1,-1,-1,-1,-1,-1,-1,-1,-1,-1,-1,-1,-1,-1,-1,-1],"loss_changes":[5.7816575E6,2.2154742E6,1.2823672E6,1.2405252E6,4.4639775E5,3.1420675E5,7.681145E5,1.375884E6,3.5499112E6,2.0638316E5,1.1653525E5,7.114666E4,3.3538034E5,4.5450006E5,1.444935E5,3.3444578E6,4.609315E5,1.9867735E6,1.1085274E6,6.4377375E4,1.09039914E5,4.0428688E4,1.4725125E4,5.3825004E4,1.711739E4,1.072205E5,4.1411362E5,4.871442E5,1.3421969E5,1.0559248E5,9.90115E4,0E0,0E0,0E0,0E0,0E0,0E0,0E0,0E0,0E0,0E0,0E0,0E0,0E0,0E0,0E0,0E0,0E0,0E0,0E0,0E0,0E0,0E0,0E0,0E0,0E0,0E0,0E0,0E0,0E0,0E0,0E0,0E0],"parents":[2147483647,0,0,1,1,2,2,3,3,4,4,5,5,6,6,7,7,8,8,9,9,10,10,11,11,12,12,13,13,14,14,15,15,16,16,17,17,18,18,19,19,20,20,21,21,22,22,23,23,24,24,25,25,26,26,27,27,28,28,29,29,30,30],"right_children":[2,4,6,8,10,12,14,16,18,20,22,24,26,28,30,32,34,36,38,40,42,44,46,48,50,52,54,56,58,60,62,-1,-1,-1,-1,-1,-1,-1,-1,-1,-1,-1,-1,-1,-1,-1,-1,-1,-1,-1,-1,-1,-1,-1,-1,-1,-1,-1,-1,-1,-1,-1,-1],"split_conditions":[4.1882798E-1,2.1570714E0,-2.850437E-1,-6.5513766E-1,-1.2580208E0,-1.079994E0,4.1960803E-1,-1.1597093E-1,8.790898E-3,-4.7198206E-1,-1.8111893E0,-1.1466372E-1,-3.8776387E-2,9.245749E-1,-6.1466146E-1,-2.1548839E0,-5.987258E-1,4.1718987E-1,-5.530649E-1,-7.427583E-1,-2.387092E0,-1.4996322E0,-1.1692728E0,4.1890597E-1,4.1913998E-1,-6.7868644E-1,-6.6118217E-1,-1.3414069E-1,1.8384613E0,2.4916328E-2,9.871615E-1,2.0959227E0,-2.65761E0,4.9202237E0,2.3314934E0,4.0938997E0,8.137073E-1,-8.515583E-1,-4.0672336E0,3.5740516E0,1.2158559E1,-2.7913392E-1,-2.7962801E0,-1.7873558E0,-3.3409638E0,-3.7094502E0,-4.693605E0,3.6894577E0,-9.013173E-1,-3.0257099E0,-1.7573115E0,3.0972812E0,1.2869803E0,-3.1870334E0,7.055016E-1,-4.428476E0,-4.7484213E-1,-3.9724114E0,-1.7213465E0,-1.8806266E0,1.0850397E0,-2.1328106E0,-2.9134328E0],"split_indices":[15,17,13,6,6,8,15,10,17,8,13,10,10,16,5,10,12,15,6,14,15,11,6,15,15,6,8,16,9,17,6,0,0,0,0,0,0,0,0,0,0,0,0,0,0,0,0,0,0,0,0,0,0,0,0,0,0,0,0,0,0,0,0],"split_type":[0,0,0,0,0,0,0,0,0,0,0,0,0,0,0,0,0,0,0,0,0,0,0,0,0,0,0,0,0,0,0,0,0,0,0,0,0,0,0,0,0,0,0,0,0,0,0,0,0,0,0,0,0,0,0,0,0,0,0,0,0,0,0],"sum_hessian":[6.1249E4,3.9126E4,2.2123E4,3.6487E4,2.639E3,3.581E3,1.8542E4,1.4421E4,2.2066E4,1.092E3,1.547E3,5.73E2,3.008E3,8.481E3,1.0061E4,6.975E3,7.446E3,1.5846E4,6.22E3,4.3E1,1.049E3,7.76E2,7.71E2,1.22E2,4.51E2,1.376E3,1.632E3,7.417E3,1.064E3,4.82E2,9.579E3,4.845E3,2.13E3,7.67E2,6.679E3,2.133E3,1.3713E4,4.844E3,1.376E3,3.1E1,1.2E1,8.33E2,2.16E2,5.27E2,2.49E2,5.23E2,2.48E2,3.5E1,8.7E1,1.85E2,2.66E2,5.39E2,8.37E2,3.46E2,1.286E3,3.25E2,7.092E3,5.36E2,5.28E2,2.62E2,2.2E2,7.491E3,2.088E3],"tree_param":{"num_deleted":"0","num_feature":"25","num_nodes":"63","size_leaf_vector":"1"}},{"base_weights":[-6.596242E-3,6.568877E0,-1.163553E1,1.0936527E1,-4.139688E0,4.816165E0,-1.4494256E1,1.260559E1,-1.9818731E1,1.7870075E1,-1.7608461E1,-1.5750001E1,8.640339E0,-9.7256E0,-2.1590242E1,2.9483446E1,1.0064596E1,-1.0735694E1,-4.3781727E1,-1.4166253E1,2.488742E1,-1.3360475E1,-4.8206135E1,4.687195E0,-2.1718348E1,1.9569271E1,-1.7988548E-1,-7.7112474E0,-3.0257544E1,-5.444729E0,-2.2418612E1,5.615314E0,2.724613E0,1.3083313E0,-1.0839213E0,-5.182653E0,-2.0188626E-2,-3.700272E0,-6.652122E0,1.9623455E0,-2.7534847E0,-2.8557146E0,2.6938686E0,-9.704799E-1,-4.3544984E0,-5.295444E0,-3.1143596E0,3.728829E0,-8.5642856E-1,-2.8493924E0,-1.6382042E0,2.1456294E0,-1.7711058E0,-2.918593E0,7.424485E-1,-1.6282446E0,-2.7803117E-1,-3.2911713E0,-1.3585566E0,-1.7904199E0,2.4482913E-1,-2.0957868E0,-2.8241994E0],"categories":[],"categories_nodes":[],"categories_segments":[],"categories_sizes":[],"default_left":[0,0,0,0,0,0,0,0,0,0,0,0,0,0,0,0,0,0,0,0,0,0,0,0,0,0,0,0,0,0,0,0,0,0,0,0,0,0,0,0,0,0,0,0,0,0,0,0,0,0,0,0,0,0,0,0,0,0,0,0,0,0,0],"id":15,"left_children":[1,3,5,7,9,11,13,15,17,19,21,23,25,27,29,31,33,35,37,39,41,43,45,47,49,51,53,55,57,59,61,-1,-1,-1,-1,-1,-1,-1,-1,-1,-1,-1,-1,-1,-1,-1,-1,-1,-1,-1,-1,-1,-1,-1,-1,-1,-1,-1,-1,-1,-1,-1,-1],"loss_changes":[4.6836035E6,1.8300644E6,1.040581E6,1.4268815E6,3.3608098E6,2.5778888E5,6.376085E5,1.1302775E6,3.109968E5,9.6793475E5,9.1349475E5,6.279761E4,2.6634462E5,4.6608462E5,1.011895E5,2.04267E5,1.4460762E6,4.4971338E5,5.8119875E4,3.5017228E5,3.87869E5,6.8117725E5,6.7783125E4,5.0864836E4,1.39235E4,8.719041E4,3.3769294E5,4.33964E5,4.4112875E4,3.652904E4,6.0697E4,0E0,0E0,0E0,0E0,0E0,0E0,0E0,0E0,0E0,0E0,0E0,0E0,0E0,0E0,0E0,0E0,0E0,0E0,0E0,0E0,0E0,0E0,0E0,0E0,0E0,0E0,0E0,0E0,0E0,0E0,0E0,0E0],"parents":[2147483647,0,0,1,1,2,2,3,3,4,4,5,5,6,6,7,7,8,8,9,9,10,10,11,11,12,12,13,13,14,14,15,15,16,16,17,17,18,18,19,19,20,20,21,21,22,22,23,23,24,24,25,25,26,26,27,27,28,28,29,29,30,30],"right_children":[2,4,6,8,10,12,14,16,18,20,22,24,26,28,30,32,34,36,38,40,42,44,46,48,50,52,54,56,58,60,62,-1,-1,-1,-1,-1,-1,-1,-1,-1,-1,-1,-1,-1,-1,-1,-1,-1,-1,-1,-1,-1,-1,-1,-1,-1,-1,-1,-1,-1,-1,-1,-1],"split_conditions":[4.1882798E-1,1.3992663E-1,-2.9120994E-1,1.6016829E0,-1.3105656E0,-1.079994E0,4.2007604E-1,-3.6520487E-1,1.7236276E0,2.0287342E0,-7.2614914E-1,-1.1466372E-1,-3.8776387E-2,1.4908348E0,-5.349066E-1,4.1672182E-1,5E0,1.8388307E0,1.159897E0,-2.387794E0,-4.7565585E-1,-1.4013693E-1,-6.30667E-1,4.1890597E-1,4.1913998E-1,-6.341342E-1,-6.6118217E-1,3.4745115E-1,1.807075E0,-1.079994E0,4.2304024E-1,5.615314E0,2.724613E0,1.3083313E0,-1.0839213E0,-5.182653E0,-2.0188626E-2,-3.700272E0,-6.652122E0,1.9623455E0,-2.7534847E0,-2.8557146E0,2.6938686E0,-9.704799E-1,-4.3544984E0,-5.295444E0,-3.1143596E0,3.728829E0,-8.5642856E-1,-2.8493924E0,-1.6382042E0,2.1456294E0,-1.7711058E0,-2.918593E0,7.424485E-1,-1.6282446E0,-2.7803117E-1,-3.2911713E0,-1.3585566E0,-1.7904199E0,2.4482913E-1,-2.0957868E0,-2.8241994E0],"split_indices":[15,17,13,11,6,8,15,13,6,17,14,10,10,13,11,15,24,8,16,15,8,13,6,15,15,4,8,14,22,8,15,0,0,0,0,0,0,0,0,0,0,0,0,0,0,0,0,0,0,0,0,0,0,0,0,0,0,0,0,0,0,0,0],"split_type":[0,0,0,0,0,0,0,0,0,0,0,0,0,0,0,0,0,0,0,0,0,0,0,0,0,0,0,0,0,0,0,0,0,0,0,0,0,0,0,0,0,0,0,0,0,0,0,0,0,0,0,0,0,0,0,0,0,0,0,0,0,0,0],"sum_hessian":[6.1249E4,3.9126E4,2.2123E4,2.7791E4,1.1335E4,3.275E3,1.8848E4,2.6361E4,1.43E3,4.303E3,7.032E3,5.13E2,2.762E3,1.1274E4,7.574E3,3.448E3,2.2913E4,1.038E3,3.92E2,7.73E2,3.53E3,6.176E3,8.56E2,1.16E2,3.97E2,1.233E3,1.529E3,1.0268E4,1.006E3,3.7E2,7.204E3,2.65E2,3.183E3,2.0022E4,2.891E3,2.11E2,8.27E2,3.04E2,8.8E1,2.19E2,5.54E2,1.3E2,3.4E3,5.51E3,6.66E2,6.68E2,1.88E2,3.3E1,8.3E1,1.73E2,2.24E2,1.174E3,5.9E1,3.17E2,1.212E3,3.749E3,6.519E3,8.67E2,1.39E2,1.43E2,2.27E2,5.763E3,1.441E3],"tree_param":{"num_deleted":"0","num_feature":"25","num_nodes":"63","size_leaf_vector":"1"}},{"base_weights":[-6.5594516E-3,4.083201E0,-1.5400497E1,5.0754414E0,-2.77949E1,-3.9669225E0,-1.8646122E1,6.384827E0,-1.9245316E1,-3.8778423E1,-1.4625712E1,4.8113236E0,-1.23385E1,-2.3345272E1,-1.5195603E1,1.3203924E1,2.5904443E0,-8.331384E0,-3.0963976E1,4.8334476E1,-3.9501225E1,-3.5144398E1,-1.1479008E0,8.368585E0,-1.5541582E1,-1.5186585E1,1.0347148E1,-1.659952E1,-3.0032476E1,-6.9992504E0,-2.2717487E1,2.4129705E0,7.1572727E-1,1.076551E0,-1.0201368E0,1.2183656E0,-1.3001317E0,-2.0399237E0,-3.548889E0,1.2352552E1,-6.4470446E-1,-3.281927E0,-4.747269E0,-4.6740456E0,-3.172548E0,5.3411055E0,-3.5415813E-1,-2.3186748E0,1.0555931E0,-2.4490433E0,-8.978841E-1,3.0936131E0,-1.5461484E0,1.7871164E0,-2.503524E0,-1.4450665E0,-2.391496E0,-2.617929E0,-3.4575539E0,-2.1475198E0,-1.9992884E-1,-2.0834222E0,-3.1280742E0],"categories":[],"categories_nodes":[],"categories_segments":[],"categories_sizes":[],"default_left":[0,0,0,0,0,0,0,0,0,0,0,0,0,0,0,0,0,0,0,0,0,0,0,0,0,0,0,0,0,0,0,0,0,0,0,0,0,0,0,0,0,0,0,0,0,0,0,0,0,0,0,0,0,0,0,0,0,0,0,0,0,0,0],"id":16,"left_children":[1,3,5,7,9,11,13,15,17,19,21,23,25,27,29,31,33,35,37,39,41,43,45,47,49,51,53,55,57,59,61,-1,-1,-1,-1,-1,-1,-1,-1,-1,-1,-1,-1,-1,-1,-1,-1,-1,-1,-1,-1,-1,-1,-1,-1,-1,-1,-1,-1,-1,-1,-1,-1],"loss_changes":[3.8562108E6,1.5308796E6,4.7703775E5,1.4947476E6,2.1075775E5,2.090586E5,1.62017E5,1.152328E6,3.0643806E5,5.2029625E4,1.8413992E5,1.00694484E5,9.4230234E4,1.906785E5,3.5600475E5,1.0517045E6,2.9925968E6,1.1924259E5,5.4538125E4,2.962993E4,4.052125E4,8.9836875E3,5.2819633E4,8.189827E4,1.1937004E4,1.6885062E4,4.384089E4,3.2854688E4,3.632875E4,2.001579E5,4.79225E4,0E0,0E0,0E0,0E0,0E0,0E0,0E0,0E0,0E0,0E0,0E0,0E0,0E0,0E0,0E0,0E0,0E0,0E0,0E0,0E0,0E0,0E0,0E0,0E0,0E0,0E0,0E0,0E0,0E0,0E0,0E0,0E0],"parents":[2147483647,0,0,1,1,2,2,3,3,4,4,5,5,6,6,7,7,8,8,9,9,10,10,11,11,12,12,13,13,14,14,15,15,16,16,17,17,18,18,19,19,20,20,21,21,22,22,23,23,24,24,25,25,26,26,27,27,28,28,29,29,30,30],"right_children":[2,4,6,8,10,12,14,16,18,20,22,24,26,28,30,32,34,36,38,40,42,44,46,48,50,52,54,56,58,60,62,-1,-1,-1,-1,-1,-1,-1,-1,-1,-1,-1,-1,-1,-1,-1,-1,-1,-1,-1,-1,-1,-1,-1,-1,-1,-1,-1,-1,-1,-1,-1,-1],"split_conditions":[4.19452E-1,9.5364E-1,-6.015034E-1,2.1636016E0,1.8429236E0,-5.204047E-1,3.463488E-1,-3.004593E-1,-1.2386621E0,6.204045E-1,1.8388307E0,4.210121E-1,-6.5934527E-1,-1.5555254E-1,9.439188E-1,-7.414584E-1,-9.195972E-2,-4.7014517E-1,-1.4418509E0,-9.05561E-1,1.0932457E0,4.1867197E-1,1.5902561E0,-1.0818309E0,-2.5729558E-1,-7.2972286E-1,-4.5886087E-1,-5.292646E-1,1.194621E-3,3.76663E-1,1.5555804E0,2.4129705E0,7.1572727E-1,1.076551E0,-1.0201368E0,1.2183656E0,-1.3001317E0,-2.0399237E0,-3.548889E0,1.2352552E1,-6.4470446E-1,-3.281927E0,-4.747269E0,-4.6740456E0,-3.172548E0,5.3411055E0,-3.5415813E-1,-2.3186748E0,1.0555931E0,-2.4490433E0,-8.978841E-1,3.0936131E0,-1.5461484E0,1.7871164E0,-2.503524E0,-1.4450665E0,-2.391496E0,-2.617929E0,-3.4575539E0,-2.1475198E0,-1.9992884E-1,-2.0834222E0,-3.1280742E0],"split_indices":[15,16,6,17,14,12,9,13,6,10,8,15,8,13,6,14,17,8,5,17,16,15,11,8,13,6,19,6,17,8,13,0,0,0,0,0,0,0,0,0,0,0,0,0,0,0,0,0,0,0,0,0,0,0,0,0,0,0,0,0,0,0,0],"split_type":[0,0,0,0,0,0,0,0,0,0,0,0,0,0,0,0,0,0,0,0,0,0,0,0,0,0,0,0,0,0,0,0,0,0,0,0,0,0,0,0,0,0,0,0,0,0,0,0,0,0,0,0,0,0,0,0,0,0,0,0,0,0,0],"sum_hessian":[6.1249E4,4.8393E4,1.2856E4,4.6933E4,1.46E3,2.843E3,1.0013E4,4.4536E4,2.397E3,7.95E2,6.65E2,1.388E3,1.455E3,4.237E3,5.776E3,1.5921E4,2.8615E4,1.242E3,1.155E3,6E0,7.89E2,2.63E2,4.02E2,1.182E3,2.06E2,1.293E3,1.62E2,2.111E3,2.126E3,2.765E3,3.011E3,5.671E3,1.025E4,1.7458E4,1.1157E4,2.3E2,1.012E3,3.48E2,8.07E2,2E0,4E0,4.32E2,3.57E2,5.7E1,2.06E2,1.6E1,3.86E2,7.6E1,1.106E3,8.6E1,1.2E2,7E0,1.286E3,1.34E2,2.8E1,1.634E3,4.77E2,1.154E3,9.72E2,7.09E2,2.056E3,2.471E3,5.4E2],"tree_param":{"num_deleted":"0","num_feature":"25","num_nodes":"63","size_leaf_vector":"1"}},{"base_weights":[-6.2776357E-3,6.108216E0,-8.805129E0,1.0408484E1,-3.9843214E0,3.1052008E0,-1.2338968E1,1.1833157E1,-1.5630304E1,7.9338865E0,-2.6784414E1,-1.3598254E1,8.986632E0,-2.0495874E1,-8.246278E0,2.459094E1,9.359108E0,-4.80804E1,-9.628594E0,1.5983987E1,-1.491823E1,-5.6594296E0,-3.4490307E1,1.6453707E1,-1.753741E1,2.4361637E1,4.0498924E0,-1.2628151E1,-2.8301556E1,2.1508423E1,-1.0453405E1,2.8971856E0,1.4878604E0,1.4509236E0,-4.223321E-1,-6.07544E0,-3.783264E0,-2.6365736E0,1.4831897E0,-3.4201908E0,1.7569817E0,-5.6786644E-1,-2.554949E0,5.038562E0,-1.1789882E0,-4.2523875E0,-2.2649605E0,-4.3412004E0,1.9982213E0,-2.290918E0,-1.2131037E0,3.4354653E0,1.8614321E0,-5.6233555E-1,1.5606235E0,7.8072274E-1,-1.4635371E0,-5.703937E0,-2.6234777E0,-5.0750833E0,3.1017883E0,2.996343E-1,-1.354987E0],"categories":[],"categories_nodes":[],"categories_segments":[],"categories_sizes":[],"default_left":[0,0,0,0,0,0,0,0,0,0,0,0,0,0,0,0,0,0,0,0,0,0,0,0,0,0,0,0,0,0,0,0,0,0,0,0,0,0,0,0,0,0,0,0,0,0,0,0,0,0,0,0,0,0,0,0,0,0,0,0,0,0,0],"id":17,"left_children":[1,3,5,7,9,11,13,15,17,19,21,23,25,27,29,31,33,35,37,39,41,43,45,47,49,51,53,55,57,59,61,-1,-1,-1,-1,-1,-1,-1,-1,-1,-1,-1,-1,-1,-1,-1,-1,-1,-1,-1,-1,-1,-1,-1,-1,-1,-1,-1,-1,-1,-1,-1,-1],"loss_changes":[3.2953358E6,1.5684532E6,1.0570242E6,9.4025325E5,2.9344208E6,5.647088E5,6.46373E5,7.5814325E5,2.5564125E5,1.3048958E6,6.032555E5,1.7750247E5,3.2256247E5,3.969845E5,8.472679E5,1.6559475E5,1.4078998E6,2.4326938E4,4.55233E5,4.18031E5,1.8138069E5,3.4142688E5,2.57391E5,3.762262E4,3.8173438E4,5.8688875E4,3.5993128E5,1.3235725E5,1.9135825E5,6.1382175E5,5.0013375E5,0E0,0E0,0E0,0E0,0E0,0E0,0E0,0E0,0E0,0E0,0E0,0E0,0E0,0E0,0E0,0E0,0E0,0E0,0E0,0E0,0E0,0E0,0E0,0E0,0E0,0E0,0E0,0E0,0E0,0E0,0E0,0E0],"parents":[2147483647,0,0,1,1,2,2,3,3,4,4,5,5,6,6,7,7,8,8,9,9,10,10,11,11,12,12,13,13,14,14,15,15,16,16,17,17,18,18,19,19,20,20,21,21,22,22,23,23,24,24,25,25,26,26,27,27,28,28,29,29,30,30],"right_children":[2,4,6,8,10,12,14,16,18,20,22,24,26,28,30,32,34,36,38,40,42,44,46,48,50,52,54,56,58,60,62,-1,-1,-1,-1,-1,-1,-1,-1,-1,-1,-1,-1,-1,-1,-1,-1,-1,-1,-1,-1,-1,-1,-1,-1,-1,-1,-1,-1,-1,-1,-1,-1],"split_conditions":[4.1867197E-1,1.5058807E-1,-6.165042E-1,1.5985665E0,-2.1546776E0,-1.079994E0,3.4672904E-1,-7.0164865E-1,1.8388307E0,-1.2746139E0,1.8483795E-1,-1.1480132E-1,-5.753904E-1,-5.3932106E-1,4.3332386E-1,4.1820392E-1,4.024215E-2,1.8351569E0,1.8442235E0,-4.7565585E-1,-1.8420205E0,-2.7887744E-1,2.0054123E0,-1.0836678E0,-1.0818309E0,-6.907542E-1,-6.6118217E-1,-3.282074E-1,-1.801312E-1,3.748261E-1,6.212301E-1,2.8971856E0,1.4878604E0,1.4509236E0,-4.223321E-1,-6.07544E0,-3.783264E0,-2.6365736E0,1.4831897E0,-3.4201908E0,1.7569817E0,-5.6786644E-1,-2.554949E0,5.038562E0,-1.1789882E0,-4.2523875E0,-2.2649605E0,-4.3412004E0,1.9982213E0,-2.290918E0,-1.2131037E0,3.4354653E0,1.8614321E0,-5.6233555E-1,1.5606235E0,7.8072274E-1,-1.4635371E0,-5.703937E0,-2.6234777E0,-5.0750833E0,3.1017883E0,2.996343E-1,-1.354987E0],"split_indices":[15,17,6,11,10,8,14,6,8,6,17,10,11,6,13,15,17,8,14,8,13,13,17,8,8,6,8,13,16,8,10,0,0,0,0,0,0,0,0,0,0,0,0,0,0,0,0,0,0,0,0,0,0,0,0,0,0,0,0,0,0,0,0],"split_type":[0,0,0,0,0,0,0,0,0,0,0,0,0,0,0,0,0,0,0,0,0,0,0,0,0,0,0,0,0,0,0,0,0,0,0,0,0,0,0,0,0,0,0,0,0,0,0,0,0,0,0,0,0,0,0,0,0,0,0,0,0,0,0],"sum_hessian":[6.1249E4,3.6137E4,2.5112E4,2.534E4,1.0797E4,5.746E3,1.9366E4,2.4026E4,1.314E3,7.091E3,3.706E3,1.496E3,4.25E3,6.469E3,1.2897E4,3.901E3,2.0125E4,2.04E2,1.11E3,5.244E3,1.847E3,9.91E2,2.715E3,1.73E2,1.323E3,1.032E3,3.218E3,3.223E3,3.246E3,8.9E2,1.2007E4,2.687E3,1.214E3,1.4592E4,5.533E3,8.9E1,1.15E2,6.59E2,4.51E2,1.6E2,5.084E3,9.89E2,8.58E2,9.7E1,8.94E2,1.616E3,1.099E3,9E0,1.64E2,6.62E2,6.61E2,3.75E2,6.57E2,1.752E3,1.466E3,2.88E2,2.935E3,2.16E2,3.03E3,1.03E2,7.87E2,2.247E3,9.76E3],"tree_param":{"num_deleted":"0","num_feature":"25","num_nodes":"63","size_leaf_vector":"1"}},{"base_weights":[-6.0537294E-3,5.497031E0,-7.925079E0,9.3674135E0,-3.5865815E0,4.1315207E0,-1.0792647E1,1.0903939E1,-1.1979728E1,9.265312E0,-2.110318E1,-1.1868593E1,1.0221915E1,-1.6673487E1,-7.4218855E0,7.2219768E0,1.9595358E1,-7.105037E0,-3.9741325E1,1.5533969E1,-1.3466028E1,-1.685021E1,-4.3270924E1,8.093968E0,-1.7413002E1,2.080237E1,4.7459393E0,-7.363119E0,-2.3617682E1,4.020425E-1,-1.4521564E1,1.7187388E0,-2.1640408E-1,5.4534483E0,1.6441139E0,6.9887227E-1,-1.3709197E0,2.9607024E0,-4.2409663E0,2.5112588E0,7.7286685E-1,-5.645435E-1,-2.9961126E0,4.599364E0,-1.8320845E0,-4.697658E0,-2.6144733E0,-1.073436E0,1.9161539E0,-2.5687582E0,-1.3208795E0,2.8454776E0,1.3907684E0,-5.550347E-1,1.4984678E0,9.3616056E-1,-1.0080179E0,-5.612538E0,-2.2326899E0,-3.0667326E0,4.0123215E-1,-2.059318E0,-5.5687237E-1],"categories":[],"categories_nodes":[],"categories_segments":[],"categories_sizes":[],"default_left":[0,0,0,0,0,0,0,0,0,0,0,0,0,0,0,0,0,0,0,0,0,0,0,0,0,0,0,0,0,0,0,0,0,0,0,0,0,0,0,0,0,0,0,0,0,0,0,0,0,0,0,0,0,0,0,0,0,0,0,0,0,0,0],"id":18,"left_children":[1,3,5,7,9,11,13,15,17,19,21,23,25,27,29,31,33,35,37,39,41,43,45,47,49,51,53,55,57,59,61,-1,-1,-1,-1,-1,-1,-1,-1,-1,-1,-1,-1,-1,-1,-1,-1,-1,-1,-1,-1,-1,-1,-1,-1,-1,-1,-1,-1,-1,-1,-1,-1],"loss_changes":[2.6692615E6,1.2705391E6,8.682794E5,8.31326E5,2.4310572E6,4.704006E5,4.0204325E5,7.563735E5,2.3004792E5,8.8781025E5,4.3012462E5,1.474568E5,2.0245362E5,4.7767662E5,7.164559E5,1.5533815E6,7.742895E5,1.3496503E5,4.8256938E4,3.648785E5,1.7359581E5,3.5536712E5,4.541775E4,6.0637008E4,3.5909875E4,6.2495312E4,2.4307855E5,1.436458E5,1.7636475E5,6.8850475E5,3.6745562E5,0E0,0E0,0E0,0E0,0E0,0E0,0E0,0E0,0E0,0E0,0E0,0E0,0E0,0E0,0E0,0E0,0E0,0E0,0E0,0E0,0E0,0E0,0E0,0E0,0E0,0E0,0E0,0E0,0E0,0E0,0E0,0E0],"parents":[2147483647,0,0,1,1,2,2,3,3,4,4,5,5,6,6,7,7,8,8,9,9,10,10,11,11,12,12,13,13,14,14,15,15,16,16,17,17,18,18,19,19,20,20,21,21,22,22,23,23,24,24,25,25,26,26,27,27,28,28,29,29,30,30],"right_children":[2,4,6,8,10,12,14,16,18,20,22,24,26,28,30,32,34,36,38,40,42,44,46,48,50,52,54,56,58,60,62,-1,-1,-1,-1,-1,-1,-1,-1,-1,-1,-1,-1,-1,-1,-1,-1,-1,-1,-1,-1,-1,-1,-1,-1,-1,-1,-1,-1,-1,-1,-1,-1],"split_conditions":[4.1867197E-1,1.5058807E-1,-6.327621E-1,1.6797144E0,-1.5081801E0,-1.079994E0,3.4672904E-1,7.1097773E-1,1.6278312E0,-1.4298025E0,-7.226829E-1,-1.1466372E-1,-5.6969184E-1,-2.048825E-1,8.1563103E-1,-6.402206E-1,4.1695586E-1,1.5734273E0,1.0960935E0,-1.3393103E0,-1.4315841E0,-1.079994E0,-6.30667E-1,-1.0818309E0,4.1913998E-1,-6.8279284E-1,-6.6118217E-1,-3.312905E-1,-2.0534427E-1,3.748261E-1,1.835806E0,1.7187388E0,-2.1640408E-1,5.4534483E0,1.6441139E0,6.9887227E-1,-1.3709197E0,2.9607024E0,-4.2409663E0,2.5112588E0,7.7286685E-1,-5.645435E-1,-2.9961126E0,4.599364E0,-1.8320845E0,-4.697658E0,-2.6144733E0,-1.073436E0,1.9161539E0,-2.5687582E0,-1.3208795E0,2.8454776E0,1.3907684E0,-5.550347E-1,1.4984678E0,9.3616056E-1,-1.0080179E0,-5.612538E0,-2.2326899E0,-3.0667326E0,4.0123215E-1,-2.059318E0,-5.5687237E-1],"split_indices":[15,17,6,6,11,8,14,8,11,19,14,10,11,13,13,6,15,11,10,6,5,8,6,8,15,6,8,13,16,8,9,0,0,0,0,0,0,0,0,0,0,0,0,0,0,0,0,0,0,0,0,0,0,0,0,0,0,0,0,0,0,0,0],"split_type":[0,0,0,0,0,0,0,0,0,0,0,0,0,0,0,0,0,0,0,0,0,0,0,0,0,0,0,0,0,0,0,0,0,0,0,0,0,0,0,0,0,0,0,0,0,0,0,0,0,0,0,0,0,0,0,0,0,0,0,0,0,0,0],"sum_hessian":[6.1249E4,3.6137E4,2.5112E4,2.534E4,1.0797E4,4.825E3,2.0287E4,2.3639E4,1.701E3,6.228E3,4.569E3,1.33E3,3.495E3,7.39E3,1.2897E4,1.6606E4,7.033E3,1.448E3,2.53E2,4.882E3,1.346E3,3.835E3,7.34E2,2.89E2,1.041E3,1.191E3,2.304E3,3.158E3,4.232E3,6.136E3,6.761E3,8.054E3,8.552E3,5.81E2,6.452E3,4.62E2,9.86E2,9E0,2.44E2,2.191E3,2.691E3,9.14E2,4.32E2,8.7E1,3.748E3,6.02E2,1.32E2,1.07E2,1.82E2,3.49E2,6.92E2,5.63E2,6.28E2,1.149E3,1.155E3,4.41E2,2.717E3,1.6E2,4.072E3,6.38E2,5.498E3,4.028E3,2.733E3],"tree_param":{"num_deleted":"0","num_feature":"25","num_nodes":"63","size_leaf_vector":"1"}},{"base_weights":[-5.599799E-3,4.9473777E0,-7.1330113E0,6.6098247E0,-1.2660259E1,3.7188108E0,-9.714033E0,2.0875227E1,5.1600304E0,4.1993584E1,-1.4298581E1,-1.0684024E1,9.201206E0,-1.49876795E1,-6.523296E0,-2.914415E1,2.2495352E1,8.286154E0,-1.4466204E1,4.1787524E0,5.4722443E1,-8.876239E0,-2.739766E1,1.4474789E1,-1.4430177E1,2.045113E1,4.2376213E0,-6.517015E0,-2.1052172E1,1.7234975E0,-1.2868201E1,2.624574E0,-3.9725559E0,2.6957567E0,9.2462206E-1,2.05945E0,5.938249E-1,-2.9430597E0,9.501075E-1,1.8518702E0,-2.1778798E0,6.091767E0,-7.9670435E-1,-5.822997E-1,-2.3881764E0,-2.2312293E0,-3.1499429E0,2.5790527E0,-1.7568783E-1,-1.9319801E0,-9.326137E-1,7.4365216E-1,2.647646E0,-4.038569E-1,1.3400973E0,-1.1644199E0,2.1882455E-1,-4.933328E0,-1.9683714E0,-2.059778E0,6.557747E-1,-1.7811002E0,-4.9669042E-1],"categories":[],"categories_nodes":[],"categories_segments":[],"categories_sizes":[],"default_left":[0,0,0,0,0,0,0,0,0,0,0,0,0,0,0,0,0,0,0,0,0,0,0,0,0,0,0,0,0,0,0,0,0,0,0,0,0,0,0,0,0,0,0,0,0,0,0,0,0,0,0,0,0,0,0,0,0,0,0,0,0,0,0],"id":19,"left_children":[1,3,5,7,9,11,13,15,17,19,21,23,25,27,29,31,33,35,37,39,41,43,45,47,49,51,53,55,57,59,61,-1,-1,-1,-1,-1,-1,-1,-1,-1,-1,-1,-1,-1,-1,-1,-1,-1,-1,-1,-1,-1,-1,-1,-1,-1,-1,-1,-1,-1,-1,-1,-1],"loss_changes":[2.162277E6,1.0579068E6,7.034206E5,6.8282925E5,2.797881E5,3.8116906E5,3.4128488E5,2.47496E5,1.8392681E6,4.357325E4,2.1482862E5,1.2565395E5,1.9512981E5,3.9269125E5,6.6151644E5,5.7308523E4,1.7421525E5,7.471434E5,1.4775828E6,9.336834E3,2.6894844E4,9.804353E4,1.777825E4,3.182079E4,2.8744812E4,8.370966E4,1.841121E5,1.4249553E5,1.7148275E5,5.934057E5,2.78956E5,0E0,0E0,0E0,0E0,0E0,0E0,0E0,0E0,0E0,0E0,0E0,0E0,0E0,0E0,0E0,0E0,0E0,0E0,0E0,0E0,0E0,0E0,0E0,0E0,0E0,0E0,0E0,0E0,0E0,0E0,0E0,0E0],"parents":[2147483647,0,0,1,1,2,2,3,3,4,4,5,5,6,6,7,7,8,8,9,9,10,10,11,11,12,12,13,13,14,14,15,15,16,16,17,17,18,18,19,19,20,20,21,21,22,22,23,23,24,24,25,25,26,26,27,27,28,28,29,29,30,30],"right_children":[2,4,6,8,10,12,14,16,18,20,22,24,26,28,30,32,34,36,38,40,42,44,46,48,50,52,54,56,58,60,62,-1,-1,-1,-1,-1,-1,-1,-1,-1,-1,-1,-1,-1,-1,-1,-1,-1,-1,-1,-1,-1,-1,-1,-1,-1,-1,-1,-1,-1,-1,-1,-1],"split_conditions":[4.1867197E-1,2.1460102E0,-6.327621E-1,-2.155503E0,-4.7198206E-1,-1.079994E0,3.5972345E-1,-4.7565585E-1,1.6458121E-1,-1.392358E0,-1.2195549E0,-1.1480132E-1,-6.234213E-1,-5.675629E-1,9.080509E-1,-2.3893542E0,-1.3105656E0,-3.5287237E-1,-4.7198206E-1,-1.1523128E0,-1.3308461E0,-2.1323934E0,-1.3938417E0,-6.0563457E-1,-1.0818309E0,1.5720835E-2,-6.6118217E-1,-6.6118217E-1,-1.801312E-1,3.76663E-1,1.836641E0,2.624574E0,-3.9725559E0,2.6957567E0,9.2462206E-1,2.05945E0,5.938249E-1,-2.9430597E0,9.501075E-1,1.8518702E0,-2.1778798E0,6.091767E0,-7.9670435E-1,-5.822997E-1,-2.3881764E0,-2.2312293E0,-3.1499429E0,2.5790527E0,-1.7568783E-1,-1.9319801E0,-9.326137E-1,7.4365216E-1,2.647646E0,-4.038569E-1,1.3400973E0,-1.1644199E0,2.1882455E-1,-4.933328E0,-1.9683714E0,-2.059778E0,6.557747E-1,-1.7811002E0,-4.9669042E-1],"split_indices":[15,17,6,10,8,8,23,8,17,6,6,10,5,6,6,15,6,13,8,4,6,16,19,11,8,17,8,8,16,8,14,0,0,0,0,0,0,0,0,0,0,0,0,0,0,0,0,0,0,0,0,0,0,0,0,0,0,0,0,0,0,0,0],"split_type":[0,0,0,0,0,0,0,0,0,0,0,0,0,0,0,0,0,0,0,0,0,0,0,0,0,0,0,0,0,0,0,0,0,0,0,0,0,0,0,0,0,0,0,0,0,0,0,0,0,0,0,0,0,0,0,0,0,0,0,0,0,0,0],"sum_hessian":[6.1249E4,3.6137E4,2.5112E4,3.302E4,3.117E3,4.825E3,2.0287E4,3.045E3,2.9975E4,9E1,3.027E3,1.33E3,3.495E3,7.646E3,1.2641E4,9.5E1,2.95E3,2.5857E4,4.118E3,2.3E1,6.7E1,2.142E3,8.85E2,1.72E2,1.158E3,1.069E3,2.426E3,3.191E3,4.455E3,5.497E3,7.144E3,1.5E1,8E1,2.206E3,7.44E2,4.141E3,2.1716E4,2.535E3,1.583E3,1.5E1,8E0,6.1E1,6E0,1.781E3,3.61E2,3.98E2,4.87E2,1.01E2,7.1E1,5.9E2,5.68E2,3.39E2,7.3E2,1.275E3,1.151E3,2.008E3,1.183E3,2.04E2,4.251E3,9.78E2,4.519E3,4.394E3,2.75E3],"tree_param":{"num_deleted":"0","num_feature":"25","num_nodes":"63","size_leaf_vector":"1"}},{"base_weights":[-5.172868E-3,4.452627E0,-6.4200163E0,9.508864E0,-6.734507E-1,1.7012739E0,-9.278036E0,3.5694454E1,7.04045E0,3.6329665E0,-1.7323269E1,-1.6143728E1,3.6840997E0,-1.727467E1,-5.9461093E0,1.603565E1,4.3550674E1,9.172683E0,-1.3158422E1,6.231141E0,-2.5357607E1,-4.837847E0,-2.5111471E1,1.32518835E1,-1.7479717E1,7.645288E0,-7.6761556E0,-1.4540416E1,-3.0415617E1,1.4422985E1,-8.275182E0,3.7821965E0,-5.2476716E-1,6.3491316E0,4.0350604E0,-4.740881E0,9.930703E-1,-9.68635E-1,-4.4521575E0,1.1742983E0,-1.1395317E0,-2.9826639E0,2.9409318E0,3.2782757E0,-8.3094674E-1,-1.374286E0,-2.9671485E0,-5.9859574E-1,6.449946E0,-2.6490157E0,-1.1770611E0,9.8880047E-1,-7.091374E-1,1.4362465E0,-1.0007284E0,-1.292725E0,-2.7886264E0,-5.826907E0,-2.5262134E0,-3.9433134E0,2.18769E0,2.4843638E-1,-1.1050435E0],"categories":[],"categories_nodes":[],"categories_segments":[],"categories_sizes":[],"default_left":[0,0,0,0,0,0,0,0,0,0,0,0,0,0,0,0,0,0,0,0,0,0,0,0,0,0,0,0,0,0,0,0,0,0,0,0,0,0,0,0,0,0,0,0,0,0,0,0,0,0,0,0,0,0,0,0,0,0,0,0,0,0,0],"id":20,"left_children":[1,3,5,7,9,11,13,15,17,19,21,23,25,27,29,31,33,35,37,39,41,43,45,47,49,51,53,55,57,59,61,-1,-1,-1,-1,-1,-1,-1,-1,-1,-1,-1,-1,-1,-1,-1,-1,-1,-1,-1,-1,-1,-1,-1,-1,-1,-1,-1,-1,-1,-1,-1,-1],"loss_changes":[1.751539E6,9.366551E5,5.8290875E5,1.1756879E6,1.2868102E6,2.31397E5,4.9483988E5,2.4131525E5,7.1622356E5,1.0741826E6,3.58496E5,2.5915672E4,2.648843E5,1.9584712E5,6.22262E5,2.0839312E5,6.8843E4,6.455356E5,1.7249425E5,1.2715915E6,2.8797488E5,1.8546952E5,1.17323E5,2.8976979E4,3.189061E4,1.4430097E5,7.833622E4,9.7037125E4,1.3345769E5,5.411994E5,3.514552E5,0E0,0E0,0E0,0E0,0E0,0E0,0E0,0E0,0E0,0E0,0E0,0E0,0E0,0E0,0E0,0E0,0E0,0E0,0E0,0E0,0E0,0E0,0E0,0E0,0E0,0E0,0E0,0E0,0E0,0E0,0E0,0E0],"parents":[2147483647,0,0,1,1,2,2,3,3,4,4,5,5,6,6,7,7,8,8,9,9,10,10,11,11,12,12,13,13,14,14,15,15,16,16,17,17,18,18,19,19,20,20,21,21,22,22,23,23,24,24,25,25,26,26,27,27,28,28,29,29,30,30],"right_children":[2,4,6,8,10,12,14,16,18,20,22,24,26,28,30,32,34,36,38,40,42,44,46,48,50,52,54,56,58,60,62,-1,-1,-1,-1,-1,-1,-1,-1,-1,-1,-1,-1,-1,-1,-1,-1,-1,-1,-1,-1,-1,-1,-1,-1,-1,-1,-1,-1,-1,-1,-1,-1],"split_conditions":[4.1867197E-1,5.2369542E-2,-2.3879685E-1,4.1679984E-1,-5.900775E-1,-1.0818309E0,3.463488E-1,3.6931542E-1,1.3798424E0,-7.24873E-1,-2.3571372E-1,-6.280431E-1,-3.8363583E-2,5.13485E-1,4.5182258E-1,-6.5934527E-1,3.3436614E-1,-2.0534427E-1,1.0260109E0,2.1460102E0,-6.6493034E-1,-3.6828798E-1,-5.6674325E-1,-1.0242085E0,4.1913998E-1,3.7140477E-1,-3.6212173E-1,1.6458121E-1,4.19062E-1,3.748261E-1,6.820661E-1,3.7821965E0,-5.2476716E-1,6.3491316E0,4.0350604E0,-4.740881E0,9.930703E-1,-9.68635E-1,-4.4521575E0,1.1742983E0,-1.1395317E0,-2.9826639E0,2.9409318E0,3.2782757E0,-8.3094674E-1,-1.374286E0,-2.9671485E0,-5.9859574E-1,6.449946E0,-2.6490157E0,-1.1770611E0,9.8880047E-1,-7.091374E-1,1.4362465E0,-1.0007284E0,-1.292725E0,-2.7886264E0,-5.826907E0,-2.5262134E0,-3.9433134E0,2.18769E0,2.4843638E-1,-1.1050435E0],"split_indices":[15,17,13,15,5,8,9,8,13,9,13,11,10,13,13,8,9,16,16,17,4,13,19,23,15,16,13,17,15,8,4,0,0,0,0,0,0,0,0,0,0,0,0,0,0,0,0,0,0,0,0,0,0,0,0,0,0,0,0,0,0,0,0],"split_type":[0,0,0,0,0,0,0,0,0,0,0,0,0,0,0,0,0,0,0,0,0,0,0,0,0,0,0,0,0,0,0,0,0,0,0,0,0,0,0,0,0,0,0,0,0,0,0,0,0,0,0,0,0,0,0,0,0,0,0,0,0,0,0],"sum_hessian":[6.1249E4,3.6137E4,2.5112E4,1.8192E4,1.7945E4,6.537E3,1.8575E4,1.566E3,1.6626E4,1.4258E4,3.687E3,6.53E2,5.884E3,5.462E3,1.3113E4,4.48E2,1.118E3,1.5039E4,1.587E3,1.3086E4,1.172E3,1.417E3,2.27E3,2.8E1,6.25E2,4.363E3,1.521E3,4.523E3,9.39E2,1.345E3,1.1768E4,2.21E2,2.27E2,1.52E2,9.66E2,1.98E2,1.4841E4,1.43E3,1.57E2,9.969E3,3.117E3,1.084E3,8.8E1,1.19E2,1.298E3,6.51E2,1.619E3,2.1E1,7E0,2.41E2,3.84E2,3.787E3,5.76E2,1.45E2,1.376E3,4.037E3,4.86E2,1.45E2,7.94E2,1.63E2,1.182E3,2.413E3,9.355E3],"tree_param":{"num_deleted":"0","num_feature":"25","num_nodes":"63","size_leaf_vector":"1"}},{"base_weights":[-4.815913E-3,2.481885E0,-9.364806E0,3.5164373E0,-1.5528691E1,4.5955315E0,-1.0461314E1,7.1152794E-1,9.813114E0,-3.2881107E1,-7.6448526E0,-1.0610402E1,8.948679E0,-4.2884293E0,-1.1982142E1,5.4479814E0,-9.516674E0,1.2935065E1,-7.380862E0,1.2086499E1,-3.6251842E1,-2.4208197E1,1.3559179E1,-1.7645346E1,-7.791383E0,6.3996124E0,3.0766323E1,-4.5341814E-1,-2.515971E1,-1.1293093E1,-2.3061935E1,8.0908984E-1,-1.0256151E0,-7.765851E-1,-4.4458275E0,-2.566973E0,1.4341654E0,-1.0044345E0,2.3199763E0,-9.508363E-1,5.058737E0,-4.1630144E0,-2.6806383E0,-2.7657573E0,-3.9513704E-1,2.669896E0,2.7088603E-1,-1.01159036E-1,-2.1436174E0,-1.2991186E0,-3.7102386E-1,7.6679677E-1,-2.3338408E0,1.0299678E1,1.9526459E0,3.535742E-1,-2.2714858E0,9.256446E0,-2.5735843E0,-6.561834E-1,-1.3185458E0,-2.4314964E0,-1.1372842E0],"categories":[],"categories_nodes":[],"categories_segments":[],"categories_sizes":[],"default_left":[0,0,0,0,0,0,0,0,0,0,0,0,0,0,0,0,0,0,0,0,0,0,0,0,0,0,0,0,0,0,0,0,0,0,0,0,0,0,0,0,0,0,0,0,0,0,0,0,0,0,0,0,0,0,0,0,0,0,0,0,0,0,0],"id":21,"left_children":[1,3,5,7,9,11,13,15,17,19,21,23,25,27,29,31,33,35,37,39,41,43,45,47,49,51,53,55,57,59,61,-1,-1,-1,-1,-1,-1,-1,-1,-1,-1,-1,-1,-1,-1,-1,-1,-1,-1,-1,-1,-1,-1,-1,-1,-1,-1,-1,-1,-1,-1,-1,-1],"loss_changes":[1.4256475E6,9.017744E5,1.9685812E5,8.0829425E5,3.5940544E5,6.211843E4,1.1186175E5,1.5339786E6,7.571804E5,1.2488019E5,6.356666E5,4.00733E3,4.0346168E4,1.8872666E5,7.275625E4,8.9832806E5,6.1276594E5,6.485596E5,1.7681872E5,4.8703418E4,3.7695625E4,7.088206E4,1.13128875E5,3.6986016E3,3.1561934E3,2.484677E4,5.9690234E4,1.7706756E5,2.720611E4,8.0546625E4,7.9110625E3,0E0,0E0,0E0,0E0,0E0,0E0,0E0,0E0,0E0,0E0,0E0,0E0,0E0,0E0,0E0,0E0,0E0,0E0,0E0,0E0,0E0,0E0,0E0,0E0,0E0,0E0,0E0,0E0,0E0,0E0,0E0,0E0],"parents":[2147483647,0,0,1,1,2,2,3,3,4,4,5,5,6,6,7,7,8,8,9,9,10,10,11,11,12,12,13,13,14,14,15,15,16,16,17,17,18,18,19,19,20,20,21,21,22,22,23,23,24,24,25,25,26,26,27,27,28,28,29,29,30,30],"right_children":[2,4,6,8,10,12,14,16,18,20,22,24,26,28,30,32,34,36,38,40,42,44,46,48,50,52,54,56,58,60,62,-1,-1,-1,-1,-1,-1,-1,-1,-1,-1,-1,-1,-1,-1,-1,-1,-1,-1,-1,-1,-1,-1,-1,-1,-1,-1,-1,-1,-1,-1,-1,-1],"split_conditions":[4.19452E-1,9.029804E-1,-5.5212116E-1,3.7294173E-1,1.8388307E0,-1.0818309E0,1.8300708E-1,-6.2471694E-1,1.0966439E0,6.204045E-1,1.8442235E0,4.1960803E-1,4.2031005E-1,5.597319E-1,1.2817601E0,2.1460102E0,5.319838E-1,3.729892E-1,1.8362609E0,-1.0320114E0,4.19062E-1,1.8221711E0,1.608361E0,-3.004593E-1,-9.787525E-1,-5.8004963E-1,-6.7475563E-1,5.4368563E-2,7.302687E-1,-8.049436E-1,-1.0291147E0,8.0908984E-1,-1.0256151E0,-7.765851E-1,-4.4458275E0,-2.566973E0,1.4341654E0,-1.0044345E0,2.3199763E0,-9.508363E-1,5.058737E0,-4.1630144E0,-2.6806383E0,-2.7657573E0,-3.9513704E-1,2.669896E0,2.7088603E-1,-1.01159036E-1,-2.1436174E0,-1.2991186E0,-3.7102386E-1,7.6679677E-1,-2.3338408E0,1.0299678E1,1.9526459E0,3.535742E-1,-2.2714858E0,9.256446E0,-2.5735843E0,-6.561834E-1,-1.3185458E0,-2.4314964E0,-1.1372842E0],"split_indices":[15,16,11,22,8,8,16,6,10,10,14,15,15,13,16,17,13,8,22,1,15,22,11,13,14,6,5,17,4,17,1,0,0,0,0,0,0,0,0,0,0,0,0,0,0,0,0,0,0,0,0,0,0,0,0,0,0,0,0,0,0,0,0],"split_type":[0,0,0,0,0,0,0,0,0,0,0,0,0,0,0,0,0,0,0,0,0,0,0,0,0,0,0,0,0,0,0,0,0,0,0,0,0,0,0,0,0,0,0,0,0,0,0,0,0,0,0,0,0,0,0,0,0,0,0,0,0,0,0],"sum_hessian":[6.1249E4,4.8393E4,1.2856E4,4.5765E4,2.628E3,9.36E2,1.192E4,3.1662E4,1.4103E4,8.2E2,1.808E3,2.08E2,7.28E2,2.357E3,9.563E3,2.1641E4,1.0021E4,1.1936E4,2.167E3,5.7E1,7.63E2,1.015E3,7.93E2,5.8E1,1.5E2,6.53E2,7.5E1,1.992E3,3.65E2,9.005E3,5.58E2,1.8524E4,3.117E3,9.544E3,4.77E2,4.19E2,1.1517E4,1.994E3,1.73E2,3.7E1,2E1,4.84E2,2.79E2,8.67E2,1.48E2,3.58E2,4.35E2,1.1E1,4.7E1,6.5E1,8.5E1,6.27E2,2.6E1,9E0,6.6E1,1.69E3,3.02E2,1E0,3.64E2,2.574E3,6.431E3,5.03E2,5.5E1],"tree_param":{"num_deleted":"0","num_feature":"25","num_nodes":"63","size_leaf_vector":"1"}},{"base_weights":[-4.371639E-3,4.067402E0,-4.776577E0,9.741499E0,-4.934017E-1,5.227972E0,-6.6228914E0,3.353427E1,7.11486E0,1.9826017E1,-2.9701662E0,-1.6290455E1,9.158484E0,-5.8157063E0,-2.2151455E1,1.6146269E1,3.8880756E1,9.090952E0,-1.3730583E1,3.3765392E1,1.0096687E1,1.2247882E1,-7.629285E0,6.5595922E0,-1.9053843E1,2.0301493E1,4.3308992E0,-1.0122824E1,-2.4320056E0,-3.318285E1,-1.9122198E1,3.6216342E0,2.3458187E-2,5.8095603E0,3.580035E0,-3.8928735E0,9.6757984E-1,-2.63529E0,-3.216921E-1,4.29512E0,2.7041848E0,4.9176397E0,7.724452E-1,-8.2387084E-1,1.801678E0,-5.928308E-1,-2.8267057E0,1.4892825E0,-3.3688104E0,-3.1736276E0,-1.2728171E0,4.0800247E0,1.8301805E0,-8.127009E-2,1.4666779E0,-3.0007273E-1,-1.5220565E0,2.4478877E0,-3.9145336E-1,-2.8371606E0,-4.110346E0,-1.5187424E0,-2.4006107E0],"categories":[],"categories_nodes":[],"categories_segments":[],"categories_sizes":[],"default_left":[0,0,0,0,0,0,0,0,0,0,0,0,0,0,0,0,0,0,0,0,0,0,0,0,0,0,0,0,0,0,0,0,0,0,0,0,0,0,0,0,0,0,0,0,0,0,0,0,0,0,0,0,0,0,0,0,0,0,0,0,0,0,0],"id":22,"left_children":[1,3,5,7,9,11,13,15,17,19,21,23,25,27,29,31,33,35,37,39,41,43,45,47,49,51,53,55,57,59,61,-1,-1,-1,-1,-1,-1,-1,-1,-1,-1,-1,-1,-1,-1,-1,-1,-1,-1,-1,-1,-1,-1,-1,-1,-1,-1,-1,-1,-1,-1,-1,-1],"loss_changes":[1.190189E6,8.5531325E5,5.2093212E5,9.201879E5,9.2224006E5,3.7178688E5,2.982782E5,1.354725E5,5.465434E5,2.6968012E5,1.158218E6,4.2999453E4,1.998099E5,3.2981406E5,3.8663875E4,1.1048615E5,6.415325E4,3.4067225E5,1.523953E5,4.9359125E4,1.084573E5,4.5267888E5,4.388477E5,2.5320828E4,4.821236E4,4.528625E4,1.3791838E5,3.6145925E5,5.058192E5,8.437E3,1.7411188E4,0E0,0E0,0E0,0E0,0E0,0E0,0E0,0E0,0E0,0E0,0E0,0E0,0E0,0E0,0E0,0E0,0E0,0E0,0E0,0E0,0E0,0E0,0E0,0E0,0E0,0E0,0E0,0E0,0E0,0E0,0E0,0E0],"parents":[2147483647,0,0,1,1,2,2,3,3,4,4,5,5,6,6,7,7,8,8,9,9,10,10,11,11,12,12,13,13,14,14,15,15,16,16,17,17,18,18,19,19,20,20,21,21,22,22,23,23,24,24,25,25,26,26,27,27,28,28,29,29,30,30],"right_children":[2,4,6,8,10,12,14,16,18,20,22,24,26,28,30,32,34,36,38,40,42,44,46,48,50,52,54,56,58,60,62,-1,-1,-1,-1,-1,-1,-1,-1,-1,-1,-1,-1,-1,-1,-1,-1,-1,-1,-1,-1,-1,-1,-1,-1,-1,-1,-1,-1,-1,-1,-1,-1],"split_conditions":[4.1851595E-1,4.024215E-2,-6.514503E-1,4.1679984E-1,-1.079994E0,-1.0818309E0,1.8034923E0,3.6931542E-1,1.6797144E0,4.1789192E-1,-1.318527E0,-1.1493892E-1,-1.14526115E-1,3.4896764E-1,4.1913998E-1,-6.5934527E-1,3.3436614E-1,-2.0534427E-1,1.8424181E0,-1.1548933E-1,-1.15558125E-1,2.038063E0,-5.3932106E-1,4.1890597E-1,4.1890597E-1,-6.746257E-1,-6.6118217E-1,-5.8004963E-1,4.148251E-1,1.0971943E0,1.5802454E0,3.6216342E0,2.3458187E-2,5.8095603E0,3.580035E0,-3.8928735E0,9.6757984E-1,-2.63529E0,-3.216921E-1,4.29512E0,2.7041848E0,4.9176397E0,7.724452E-1,-8.2387084E-1,1.801678E0,-5.928308E-1,-2.8267057E0,1.4892825E0,-3.3688104E0,-3.1736276E0,-1.2728171E0,4.0800247E0,1.8301805E0,-8.127009E-2,1.4666779E0,-3.0007273E-1,-1.5220565E0,2.4478877E0,-3.9145336E-1,-2.8371606E0,-4.110346E0,-1.5187424E0,-2.4006107E0],"split_indices":[15,17,6,15,8,8,6,8,6,15,6,10,10,14,15,8,9,16,14,10,10,17,6,15,15,19,8,6,13,10,13,0,0,0,0,0,0,0,0,0,0,0,0,0,0,0,0,0,0,0,0,0,0,0,0,0,0,0,0,0,0,0,0],"split_type":[0,0,0,0,0,0,0,0,0,0,0,0,0,0,0,0,0,0,0,0,0,0,0,0,0,0,0,0,0,0,0,0,0,0,0,0,0,0,0,0,0,0,0,0,0,0,0,0,0,0,0,0,0,0,0,0,0,0,0,0,0,0,0],"sum_hessian":[6.1249E4,3.305E4,2.8199E4,1.4727E4,1.8323E4,4.393E3,2.3806E4,1.463E3,1.3264E4,1.99E3,1.6333E4,6.78E2,3.715E3,2.2631E4,1.175E3,3.45E2,1.118E3,1.2116E4,1.148E3,8.17E2,1.173E3,3.828E3,1.2505E4,7.3E1,6.05E2,1.122E3,2.593E3,9.956E3,1.2675E4,2.51E2,9.24E2,1.52E2,1.93E2,1.52E2,9.66E2,1.45E2,1.1971E4,5.21E2,6.27E2,3.43E2,4.74E2,6.6E1,1.107E3,8.41E2,2.987E3,1.1554E4,9.51E2,6.1E1,1.2E1,2E2,4.05E2,9.8E1,1.024E3,1.732E3,8.61E2,4.154E3,5.802E3,6.61E2,1.2014E4,1.59E2,9.2E1,5.14E2,4.1E2],"tree_param":{"num_deleted":"0","num_feature":"25","num_nodes":"63","size_leaf_vector":"1"}},{"base_weights":[-3.8069559E-3,3.6611907E0,-4.299262E0,8.723469E0,-4.847242E-1,6.538588E0,-5.7289686E0,3.0005585E1,6.370843E0,2.5559692E0,-1.4874629E1,-5.4383963E-1,1.4524434E1,-3.3214115E1,-5.328048E0,9.878813E0,3.414418E1,8.12678E0,-1.2360104E1,4.8276877E0,-1.8582443E1,2.6816349E1,-1.9370659E1,9.74085E0,-3.1586237E1,2.0894371E1,9.7023624E-1,-5.179872E1,-2.4652615E1,-4.513862E0,-1.877167E1,3.2525792E0,-3.2472615E0,3.0535033E0,4.9264817E0,6.038072E-1,2.1277435E0,-3.1402051E0,-6.042561E-1,9.382084E-1,-7.7923626E-1,-2.0928335E-1,-2.2859943E0,-3.7736276E-1,3.5140266E0,1.5676801E0,-2.2208965E0,-1.4206525E0,1.8082846E0,-4.3873744E0,-1.1484283E0,3.7458916E0,1.2989358E0,-1.2786946E0,7.162154E-1,-7.3552613E0,-2.7071345E0,-4.5101577E-1,-3.1524706E0,-1.7652339E-1,-8.500205E-1,-2.8669925E0,-1.6407118E0],"categories":[],"categories_nodes":[],"categories_segments":[],"categories_sizes":[],"default_left":[0,0,0,0,0,0,0,0,0,0,0,0,0,0,0,0,0,0,0,0,0,0,0,0,0,0,0,0,0,0,0,0,0,0,0,0,0,0,0,0,0,0,0,0,0,0,0,0,0,0,0,0,0,0,0,0,0,0,0,0,0,0,0],"id":23,"left_children":[1,3,5,7,9,11,13,15,17,19,21,23,25,27,29,31,33,35,37,39,41,43,45,47,49,51,53,55,57,59,61,-1,-1,-1,-1,-1,-1,-1,-1,-1,-1,-1,-1,-1,-1,-1,-1,-1,-1,-1,-1,-1,-1,-1,-1,-1,-1,-1,-1,-1,-1,-1,-1],"loss_changes":[9.6426425E5,6.936711E5,4.36995E5,7.448835E5,7.951153E5,1.8591789E5,2.743595E5,1.23025E5,4.4086394E5,7.204936E5,5.947165E5,5.567804E5,1.333741E5,5.5685156E4,2.687065E5,2.4467569E5,6.551075E4,3.3643525E5,1.3803302E5,7.7871E5,1.02650125E5,7.881283E4,2.8504688E5,2.6195416E5,1.0669541E5,1.3713444E5,4.2257336E4,5.825553E4,3.404775E4,2.5370462E5,3.2343312E4,0E0,0E0,0E0,0E0,0E0,0E0,0E0,0E0,0E0,0E0,0E0,0E0,0E0,0E0,0E0,0E0,0E0,0E0,0E0,0E0,0E0,0E0,0E0,0E0,0E0,0E0,0E0,0E0,0E0,0E0,0E0,0E0],"parents":[2147483647,0,0,1,1,2,2,3,3,4,4,5,5,6,6,7,7,8,8,9,9,10,10,11,11,12,12,13,13,14,14,15,15,16,16,17,17,18,18,19,19,20,20,21,21,22,22,23,23,24,24,25,25,26,26,27,27,28,28,29,29,30,30],"right_children":[2,4,6,8,10,12,14,16,18,20,22,24,26,28,30,32,34,36,38,40,42,44,46,48,50,52,54,56,58,60,62,-1,-1,-1,-1,-1,-1,-1,-1,-1,-1,-1,-1,-1,-1,-1,-1,-1,-1,-1,-1,-1,-1,-1,-1,-1,-1,-1,-1,-1,-1,-1,-1],"split_conditions":[4.1851595E-1,4.2640977E-2,-3.127918E-1,4.1679984E-1,-7.26507E-1,-6.6118217E-1,-1.801312E-1,3.6747852E-1,1.6797144E0,-1.8946688E-1,-6.5934527E-1,-9.741939E-1,-6.3868666E-1,-2.5460315E-1,1.791257E0,-6.5934527E-1,-9.862313E-2,1.8388307E0,1.8090879E0,2.1344159E0,-7.9561305E-1,-6.6485596E-1,-2.1550214E0,-1.0818309E0,-6.6301906E-1,-5.0828344E-1,-6.06525E-1,4.1898397E-1,4.3187883E-1,4.1968602E-1,4.19062E-1,3.2525792E0,-3.2472615E0,3.0535033E0,4.9264817E0,6.038072E-1,2.1277435E0,-3.1402051E0,-6.042561E-1,9.382084E-1,-7.7923626E-1,-2.0928335E-1,-2.2859943E0,-3.7736276E-1,3.5140266E0,1.5676801E0,-2.2208965E0,-1.4206525E0,1.8082846E0,-4.3873744E0,-1.1484283E0,3.7458916E0,1.2989358E0,-1.2786946E0,7.162154E-1,-7.3552613E0,-2.7071345E0,-4.5101577E-1,-3.1524706E0,-1.7652339E-1,-8.500205E-1,-2.8669925E0,-1.6407118E0],"split_indices":[15,17,13,15,9,8,16,8,6,13,8,9,4,16,6,8,17,8,22,17,4,8,10,8,8,11,23,15,6,15,15,0,0,0,0,0,0,0,0,0,0,0,0,0,0,0,0,0,0,0,0,0,0,0,0,0,0,0,0,0,0,0,0],"split_type":[0,0,0,0,0,0,0,0,0,0,0,0,0,0,0,0,0,0,0,0,0,0,0,0,0,0,0,0,0,0,0,0,0,0,0,0,0,0,0,0,0,0,0,0,0,0,0,0,0,0,0,0,0,0,0,0,0,0,0,0,0,0,0],"sum_hessian":[6.1249E4,3.305E4,2.8199E4,1.488E4,1.817E4,3.286E3,2.4913E4,1.48E3,1.34E4,1.5001E4,3.169E3,1.742E3,1.544E3,3.57E2,2.4556E4,2.53E2,1.227E3,1.2252E4,1.148E3,1.3546E4,1.455E3,3.08E2,2.861E3,1.309E3,4.33E2,1.05E3,4.94E2,1.11E2,2.46E2,2.3155E4,1.401E3,1.65E2,8.8E1,9.93E2,2.34E2,1.0574E4,1.678E3,2.85E2,8.63E2,9.954E3,3.592E3,3E2,1.155E3,6.6E1,2.42E2,2.14E2,2.647E3,3.38E2,9.71E2,2.68E2,1.65E2,3.38E2,7.12E2,1.53E2,3.41E2,5.8E1,5.3E1,6.3E1,1.83E2,1.3706E4,9.449E3,2.68E2,1.133E3],"tree_param":{"num_deleted":"0","num_feature":"25","num_nodes":"63","size_leaf_vector":"1"}},{"base_weights":[-3.632482E-3,1.8459467E0,-6.965484E0,2.8800762E0,-1.08582E1,4.7047725E0,-7.882191E0,3.4608155E-1,9.009258E0,-2.8162863E1,-2.0581238E0,-5.2225165E0,9.621331E0,-6.4472237E0,-1.3132057E1,4.23002E0,-8.387336E0,-2.5217607E1,1.0143049E1,3.967491E0,-3.2911053E1,-1.778247E1,1.56163025E1,-8.009713E0,4.8376054E-1,6.904638E0,3.0466606E1,-8.629385E0,-1.2521234E0,-1.6363295E1,-7.212056E0,1.1857097E0,-4.7375383E-3,-6.558126E-1,-3.1625292E0,1.567988E0,-5.1217494E0,2.245323E0,6.047221E-1,-4.6668897E0,1.2011209E0,-4.1640544E0,-2.5352015E0,-2.0028703E0,5.1274854E-1,2.5072982E0,3.628105E-1,-1.4715705E0,-5.336446E-1,1.0667074E0,-6.4224154E-1,4.538438E-1,3.3673298E0,1.2787925E0,8.279222E0,-5.274027E-1,-1.364329E0,2.1408098E0,-3.9298937E-1,-1.2821041E0,-1.8898035E0,4.6966887E-1,-1.4488562E0],"categories":[],"categories_nodes":[],"categories_segments":[],"categories_sizes":[],"default_left":[0,0,0,0,0,0,0,0,0,0,0,0,0,0,0,0,0,0,0,0,0,0,0,0,0,0,0,0,0,0,0,0,0,0,0,0,0,0,0,0,0,0,0,0,0,0,0,0,0,0,0,0,0,0,0,0,0,0,0,0,0,0,0],"id":24,"left_children":[1,3,5,7,9,11,13,15,17,19,21,23,25,27,29,31,33,35,37,39,41,43,45,47,49,51,53,55,57,59,61,-1,-1,-1,-1,-1,-1,-1,-1,-1,-1,-1,-1,-1,-1,-1,-1,-1,-1,-1,-1,-1,-1,-1,-1,-1,-1,-1,-1,-1,-1,-1,-1],"loss_changes":[7.886982E5,6.358186E5,1.3758388E5,6.9505425E5,5.5470675E5,4.5783426E4,8.9720875E4,1.0740461E6,5.08228E5,1.8747556E5,6.717295E5,4.9501787E3,3.529678E4,1.0614466E5,4.881378E4,7.1502125E5,4.1410944E5,4.4740166E5,6.387409E5,6.532201E4,6.9549875E4,6.592144E4,1.2892241E5,3.6681934E3,7.3122656E3,3.5064215E4,6.5544695E4,1.1086181E5,1.6822525E5,1.4608469E4,7.848997E4,0E0,0E0,0E0,0E0,0E0,0E0,0E0,0E0,0E0,0E0,0E0,0E0,0E0,0E0,0E0,0E0,0E0,0E0,0E0,0E0,0E0,0E0,0E0,0E0,0E0,0E0,0E0,0E0,0E0,0E0,0E0,0E0],"parents":[2147483647,0,0,1,1,2,2,3,3,4,4,5,5,6,6,7,7,8,8,9,9,10,10,11,11,12,12,13,13,14,14,15,15,16,16,17,17,18,18,19,19,20,20,21,21,22,22,23,23,24,24,25,25,26,26,27,27,28,28,29,29,30,30],"right_children":[2,4,6,8,10,12,14,16,18,20,22,24,26,28,30,32,34,36,38,40,42,44,46,48,50,52,54,56,58,60,62,-1,-1,-1,-1,-1,-1,-1,-1,-1,-1,-1,-1,-1,-1,-1,-1,-1,-1,-1,-1,-1,-1,-1,-1,-1,-1,-1,-1,-1,-1,-1,-1],"split_conditions":[4.19452E-1,8.726313E-1,-5.5212116E-1,3.7294173E-1,1.8388307E0,-1.079994E0,9.7433954E-1,-2.5421247E-1,3.729892E-1,8.4385735E-1,1.8442235E0,-1.0818309E0,4.2031005E-1,3.6364192E-1,1.8388307E0,-7.4369705E-1,5.13485E-1,6.545297E-1,7.986034E-1,7.146515E-1,4.1874996E-1,1.8272032E0,1.608361E0,4.1960803E-1,-5.6969184E-1,-1.014062E0,-9.804134E-1,-1.5555254E-1,1.1799003E-1,9.297066E-1,1.5185829E0,1.1857097E0,-4.7375383E-3,-6.558126E-1,-3.1625292E0,1.567988E0,-5.1217494E0,2.245323E0,6.047221E-1,-4.6668897E0,1.2011209E0,-4.1640544E0,-2.5352015E0,-2.0028703E0,5.1274854E-1,2.5072982E0,3.628105E-1,-1.4715705E0,-5.336446E-1,1.0667074E0,-6.4224154E-1,4.538438E-1,3.3673298E0,1.2787925E0,8.279222E0,-5.274027E-1,-1.364329E0,2.1408098E0,-3.9298937E-1,-1.2821041E0,-1.8898035E0,4.6966887E-1,-1.4488562E0],"split_indices":[15,16,11,22,8,8,6,13,8,6,14,8,15,9,8,14,13,10,6,8,15,22,11,15,11,23,14,13,16,13,13,0,0,0,0,0,0,0,0,0,0,0,0,0,0,0,0,0,0,0,0,0,0,0,0,0,0,0,0,0,0,0,0],"split_type":[0,0,0,0,0,0,0,0,0,0,0,0,0,0,0,0,0,0,0,0,0,0,0,0,0,0,0,0,0,0,0,0,0,0,0,0,0,0,0,0,0,0,0,0,0,0,0,0,0,0,0,0,0,0,0,0,0,0,0,0,0,0,0],"sum_hessian":[6.1249E4,4.8393E4,1.2856E4,4.4751E4,3.642E3,9.36E2,1.192E4,3.1662E4,1.3089E4,1.227E3,2.415E3,3.1E2,6.26E2,9.363E3,2.557E3,2.1916E4,9.746E3,4.19E2,1.267E4,1.58E2,1.069E3,1.278E3,1.137E3,2.08E2,1.02E2,5.55E2,7.1E1,6.593E3,2.77E3,1.653E3,9.04E2,7.874E3,1.4042E4,9.036E3,7.1E2,1.63E2,2.56E2,3.162E3,9.508E3,2.1E1,1.37E2,4.94E2,5.75E2,1.164E3,1.14E2,6.35E2,5.02E2,5.8E1,1.5E2,4.1E1,6.1E1,5.11E2,4.4E1,5.4E1,1.7E1,3.951E3,2.642E3,2.92E2,2.478E3,6.92E2,9.61E2,3.43E2,5.61E2],"tree_param":{"num_deleted":"0","num_feature":"25","num_nodes":"63","size_leaf_vector":"1"}},{"base_weights":[-3.3461407E-3,3.4367704E0,-3.280389E0,4.4524845E-1,1.0971888E1,5.7438126E0,-4.602139E0,1.1420364E0,-6.0453552E1,2.1069977E1,4.300857E0,-1.140047E0,1.4910941E1,-2.2979311E1,-4.032093E0,1.068814E1,-1.8591368E0,-3.233604E1,-7.1708725E1,2.8030024E1,1.1347483E1,2.2709772E1,1.5685124E0,6.9584255E0,-3.0146496E1,2.8223335E1,7.5070343E0,-1.0595553E1,-3.292283E1,-2.6175811E0,-1.0878702E1,1.7662964E0,-2.4643445E-1,1.8334616E0,-4.421228E-1,2.4904668E0,-3.898588E0,-1.6940125E0,-7.427707E0,2.6315234E0,4.2648864E0,-5.316554E0,1.5008892E0,-2.5100408E0,2.8871658E0,-2.20873E0,7.266287E-1,-1.389456E0,1.438825E0,-4.41999E0,-1.004095E0,4.741291E0,1.5697597E0,1.3217055E0,-3.2206056E-1,-3.3143213E0,-6.1830777E-1,-4.858682E0,-1.8243496E0,-3.310748E-1,3.0207725E0,-8.2907486E-1,-2.1891878E0],"categories":[],"categories_nodes":[],"categories_segments":[],"categories_sizes":[],"default_left":[0,0,0,0,0,0,0,0,0,0,0,0,0,0,0,0,0,0,0,0,0,0,0,0,0,0,0,0,0,0,0,0,0,0,0,0,0,0,0,0,0,0,0,0,0,0,0,0,0,0,0,0,0,0,0,0,0,0,0,0,0,0,0],"id":25,"left_children":[1,3,5,7,9,11,13,15,17,19,21,23,25,27,29,31,33,35,37,39,41,43,45,47,49,51,53,55,57,59,61,-1,-1,-1,-1,-1,-1,-1,-1,-1,-1,-1,-1,-1,-1,-1,-1,-1,-1,-1,-1,-1,-1,-1,-1,-1,-1,-1,-1,-1,-1,-1,-1],"loss_changes":[6.905077E5,6.735793E5,3.741876E5,9.0776506E5,5.719701E5,2.5294277E5,2.86547E5,6.0595706E5,7.426644E4,2.2826775E5,2.5724633E5,5.3814894E5,1.6921912E5,1.0099384E5,2.5700112E5,4.641373E5,8.326526E5,2.7996469E4,2.2936E4,4.8212E4,3.340882E5,1.9545578E5,6.006299E5,2.7768678E5,1.408319E5,1.46839E5,6.779064E4,3.640776E4,1.03964875E5,5.006069E5,1.2932969E5,0E0,0E0,0E0,0E0,0E0,0E0,0E0,0E0,0E0,0E0,0E0,0E0,0E0,0E0,0E0,0E0,0E0,0E0,0E0,0E0,0E0,0E0,0E0,0E0,0E0,0E0,0E0,0E0,0E0,0E0,0E0,0E0],"parents":[2147483647,0,0,1,1,2,2,3,3,4,4,5,5,6,6,7,7,8,8,9,9,10,10,11,11,12,12,13,13,14,14,15,15,16,16,17,17,18,18,19,19,20,20,21,21,22,22,23,23,24,24,25,25,26,26,27,27,28,28,29,29,30,30],"right_children":[2,4,6,8,10,12,14,16,18,20,22,24,26,28,30,32,34,36,38,40,42,44,46,48,50,52,54,56,58,60,62,-1,-1,-1,-1,-1,-1,-1,-1,-1,-1,-1,-1,-1,-1,-1,-1,-1,-1,-1,-1,-1,-1,-1,-1,-1,-1,-1,-1,-1,-1,-1,-1],"split_conditions":[4.1835994E-1,3.711523E-1,-3.127918E-1,6.543233E-1,4.177359E-1,-6.6118217E-1,-1.3414069E-1,-1.0781571E0,4.1742387E-1,6.9042015E-1,4.0557575E-1,-6.209649E-1,-6.4618486E-1,4.5241073E-1,9.029804E-1,-2.6654494E-1,-1.9715117E0,-2.706401E-1,-1.2188434E-1,1.8040558E0,7.1097773E-1,3.729892E-1,7.128146E-1,-1.0818309E0,-6.6301906E-1,-5.0828344E-1,1.5720835E-2,3.4919122E-1,4.1898397E-1,1.84574E0,-8.9076823E-1,1.7662964E0,-2.4643445E-1,1.8334616E0,-4.421228E-1,2.4904668E0,-3.898588E0,-1.6940125E0,-7.427707E0,2.6315234E0,4.2648864E0,-5.316554E0,1.5008892E0,-2.5100408E0,2.8871658E0,-2.20873E0,7.266287E-1,-1.389456E0,1.438825E0,-4.41999E0,-1.004095E0,4.741291E0,1.5697597E0,1.3217055E0,-3.2206056E-1,-3.3143213E0,-6.1830777E-1,-4.858682E0,-1.8243496E0,-3.310748E-1,3.0207725E0,-8.2907486E-1,-2.1891878E0],